#ifndef __WB__
#define __WB__
#define X_LS 390
#define LS 128
#define HLnum 5
//w1[390][128]
//w2[128][128]
//w3[128][128]
//w4[128][128]
//w3[128][10]

//b1[128]
//b2[128]
//b3[128]
//b4[128]
//b5[10]

double w1[390][128]={{1.25381863e-02,-9.61688980e-02,1.44543098e-02,-6.50246367e-02
,4.91210669e-02,-7.52090849e-03,-4.11401950e-02,-4.12472524e-03
,-9.03833210e-02,9.21903849e-02,-2.54856311e-02,-3.19414325e-02
,-1.19522624e-02,8.99912417e-02,-1.37953283e-02,-4.13676165e-03
,-5.56770191e-02,-5.70279732e-02,-2.78738476e-02,-3.02409083e-02
,-2.47611310e-02,4.72652130e-02,-9.69595164e-02,-2.84186192e-02
,2.05488056e-02,-6.95853978e-02,-7.03388602e-02,2.15866547e-02
,-7.44296098e-03,5.72495945e-02,5.14546707e-02,1.05325893e-01
,7.11578205e-02,-9.82469246e-02,3.15482542e-02,-2.02644002e-02
,-4.24317531e-02,-9.78441257e-03,2.42706053e-02,6.13481030e-02
,6.35754168e-02,-1.78372264e-02,-4.51231524e-02,-9.11876261e-02
,-9.26629156e-02,-5.38928844e-02,6.48020580e-02,-7.98839927e-02
,-8.33881274e-02,4.90969419e-02,9.30186436e-02,9.85711738e-02
,9.64602530e-02,-8.91994983e-02,-3.35004255e-02,9.22447741e-02
,3.04370075e-02,2.35880017e-02,2.62519587e-02,-1.07966907e-01
,-7.84519017e-02,-9.12606642e-02,5.70221208e-02,3.32698002e-02
,1.09326564e-01,-6.83658570e-02,3.25486585e-02,-4.34091352e-02
,6.24513887e-02,-3.01033240e-02,-5.69015369e-02,-8.00313354e-02
,9.49392021e-02,2.49893926e-02,1.05843812e-01,-7.02715591e-02
,-5.89733338e-03,7.36663267e-02,3.00490577e-03,8.10849946e-03
,7.34358877e-02,1.30658476e-02,6.21344335e-03,-8.92098397e-02
,6.70988485e-02,6.89664409e-02,-9.36678946e-02,-8.60885009e-02
,8.81207585e-02,7.95816928e-02,-6.18398860e-02,-8.05951804e-02
,4.99639399e-02,-5.32121696e-02,-8.67396519e-02,2.88661923e-02
,2.05925759e-02,7.58020654e-02,-1.02790885e-01,-8.82940069e-02
,2.81890780e-02,9.21357498e-02,1.60275530e-02,1.59469582e-02
,6.16825186e-02,5.45738824e-02,-4.95200120e-02,-7.92759284e-02
,-3.45231183e-02,3.08088940e-02,5.52937239e-02,-3.70243341e-02
,-6.64748950e-06,-2.83774193e-02,3.53816748e-02,2.14090236e-02
,7.35908523e-02,1.02107823e-01,-1.68097168e-02,-6.03087656e-02
,2.34395061e-02,-3.81442569e-02,1.02052540e-01,-7.79612213e-02
,6.85098842e-02,6.59603924e-02,-1.09446384e-01,-2.96475422e-02},{0.04472055,0.02299813,0.00110219,-0.03881468,-0.03519838,0.01541772
,-0.01420786,0.06069541,-0.11080593,-0.08841393,-0.00401162,0.08978374
,0.04562457,-0.03188918,0.05095502,-0.07174441,0.0907841,-0.1072218
,0.04959679,-0.02460592,0.06139794,-0.02401158,-0.01844441,0.08755354
,0.06571596,0.06091658,-0.07758708,-0.02248227,0.00757957,-0.03788031
,0.04121066,0.01442548,-0.03711478,-0.03590443,0.08947624,-0.01250689
,0.00328258,-0.09479705,0.02044251,0.10040856,-0.09616063,-0.0266778
,0.08257293,-0.10824588,-0.00117475,-0.03493797,-0.01533898,0.05023604
,0.11739711,0.07647181,-0.03269487,-0.0196342,-0.04618213,-0.0590667
,-0.0445637,0.05203908,0.05908488,0.05192441,0.09952208,0.00517892
,-0.08658479,0.07197174,-0.03872165,-0.02463172,0.07059218,-0.07776674
,0.00704289,0.09169426,-0.08678132,-0.03590767,0.06882736,0.03559813
,-0.09543146,0.10788791,0.00467241,-0.041317,-0.0440931,0.10113987
,-0.01210359,0.02747271,-0.00605447,0.07285342,-0.07277063,-0.00177099
,-0.03142552,-0.03528071,-0.00248842,-0.05353667,0.07099068,0.06974813
,0.08160187,0.03075637,-0.08852464,-0.02226542,-0.11751506,0.01214536
,0.0790481,0.02659319,0.09864337,0.04279694,-0.04218452,-0.04763361
,-0.08304804,-0.04764665,-0.0072107,-0.05083748,-0.02898476,0.03435404
,0.09071649,-0.02374834,-0.08273348,0.06503781,-0.06857992,-0.00291949
,0.03085628,-0.00848142,0.08884623,-0.02676472,-0.09073688,-0.06946888
,-0.05659245,-0.0254147,-0.10325755,-0.03817565,0.09140274,0.07100392
,0.10649796,0.09266131},{-0.00996717,-0.03337646,-0.0734155,-0.07068796,-0.04452948,-0.06823564
,0.03194189,-0.03244086,-0.00099805,-0.07912112,0.03356357,-0.04999064
,0.10260111,-0.02343815,0.02565176,0.00956603,-0.09479618,0.00184187
,0.04942252,0.07615298,-0.08281078,-0.02871433,-0.00379405,0.01572568
,0.0595276,0.04392247,0.07846454,-0.08531944,-0.07938444,-0.10872888
,-0.05843513,0.05560823,0.08790202,-0.01314473,0.03797185,0.0878381
,0.03288544,-0.06361873,-0.0286912,0.08519258,0.10242995,-0.04547348
,-0.06988376,0.09030294,0.07908034,0.04088183,0.08093471,0.06751271
,-0.05622189,-0.02381984,0.05326016,-0.01461544,0.08445209,0.03637537
,-0.011819,0.07288115,0.03560037,0.03195943,0.05270223,0.08143147
,0.03952724,-0.09684362,0.00066167,0.06985854,-0.0341201,-0.02146728
,-0.00722999,0.05866291,-0.03901584,0.05523217,-0.04488662,0.07416158
,0.0535732,0.0809338,0.0987095,-0.06718417,-0.07863686,0.02372984
,-0.02486821,0.00086345,-0.05759602,0.01478552,-0.02825635,0.06892969
,-0.07330377,-0.00264819,0.0471301,-0.10102521,0.09038632,0.03239429
,-0.03634944,0.1076275,0.07256322,0.00558794,0.08988076,-0.00318259
,0.0428299,-0.01758369,-0.04684908,0.02835613,0.01848451,0.05856661
,-0.00418861,-0.02674663,-0.11308279,-0.00965662,0.02227763,0.04283726
,0.00150034,-0.02019159,-0.07804544,-0.06457014,0.02222748,0.03424196
,-0.06092748,0.08908485,0.08187937,-0.05954989,-0.07426003,0.0026683
,-0.07584252,-0.08755998,-0.07099248,-0.05480533,0.08652969,-0.08013689
,0.08314175,0.08003782},{-0.09439508,0.06603194,0.05543869,-0.02250415,-0.06132833,-0.00934185
,0.02344039,-0.087467,0.02894209,-0.08545769,-0.09989165,-0.00203225
,0.01730736,-0.07097002,-0.01269135,-0.06039353,-0.04482102,0.0676048
,-0.00141697,0.03784297,0.05893905,0.01599618,-0.11261801,-0.09049749
,-0.10149628,0.10336345,0.05782562,-0.07949961,-0.07564376,0.03350454
,0.05847048,-0.08894081,-0.08345935,0.08346913,0.01830827,0.05949686
,-0.08463445,-0.05327808,-0.0177958,-0.06647584,-0.09048997,0.03662715
,-0.10645517,0.06539742,-0.0702272,0.1021367,-0.00511477,-0.06099395
,0.07296811,0.02077907,-0.0146456,-0.06572905,-0.02360313,0.05370202
,-0.04268645,0.09918366,0.03890314,-0.09760415,-0.08115963,0.01555426
,0.07382291,-0.02149997,-0.07609125,0.04707024,-0.02787707,0.05316612
,0.01506875,-0.08561933,0.05835154,0.05523728,-0.07273304,0.08546463
,0.09726121,0.08464272,0.08491904,-0.10932729,0.00169431,-0.05061984
,-0.00255647,0.09632581,-0.03120219,0.0719376,-0.00728847,-0.05604517
,0.02504497,0.04953481,0.08864807,0.09554847,-0.07119107,-0.00288536
,0.05043299,0.04918174,-0.0073758,-0.08087622,0.11564991,0.01724521
,0.05505749,-0.05762381,-0.03617654,-0.02201167,0.06398103,0.04569922
,-0.06189197,0.04770045,-0.02304489,-0.01533379,-0.01324169,-0.09631173
,0.07263105,0.05102326,-0.07298522,-0.02334129,-0.09853482,-0.04508285
,-0.01836319,-0.00549829,-0.04195839,0.08440351,0.00674526,-0.05110116
,-0.10611346,-0.04844341,0.09303053,-0.08564916,0.02752099,-0.09753575
,-0.06460647,-0.07292575},{-0.10019357,0.03431199,-0.0932442,0.08218011,0.02579267,0.06759155
,-0.08083131,-0.06271172,-0.04168248,-0.02046867,-0.06240576,0.06763095
,-0.0028181,-0.02498864,0.03779041,-0.06611895,0.01714179,-0.0275762
,0.03082402,0.06989942,0.01915386,0.00664298,-0.03104083,-0.01377082
,0.00569378,0.00285892,0.06103035,0.07742687,0.02217892,-0.03924833
,-0.05878335,0.00892932,-0.09338103,-0.06303371,-0.03442553,-0.06401758
,-0.01748881,-0.03848999,-0.05668519,0.01587347,0.0418851,-0.00061298
,0.07578311,-0.05266572,-0.0705784,-0.07999177,0.03993167,0.10667893
,-0.1194699,0.06818708,-0.02757998,-0.05319732,0.07562591,0.00037858
,-0.0680089,0.04414034,-0.08561894,0.01639955,-0.03560869,0.04738255
,-0.05662743,0.09988015,0.07340863,0.08551077,0.04818577,-0.05984231
,-0.03902796,0.01784507,0.07437706,-0.07677689,-0.05917066,0.00216629
,-0.05824297,-0.05075401,0.03300872,0.01948167,-0.08917367,0.10762829
,0.03427685,-0.00146602,-0.03534517,0.02905575,-0.00265273,0.08550431
,-0.05205971,-0.06255041,-0.09223837,-0.1034496,-0.06406863,0.04342607
,0.02732267,-0.03811773,0.02082327,0.01987512,-0.00560043,-0.01860608
,0.10806331,0.00286108,0.08953644,0.00337104,0.05629395,0.02784497
,0.04254378,0.01745082,-0.09133381,-0.02363604,0.04370339,-0.07993123
,-0.03232408,0.02740856,0.10507486,-0.06348033,0.07647486,0.03451363
,-0.09919698,-0.09846744,-0.09454159,-0.06547808,-0.03485513,-0.00615817
,-0.10159152,0.0757832,-0.06394029,0.078279,-0.01907896,-0.08402056
,0.06426228,0.04988299},{-0.07475574,-0.08075465,-0.09061322,0.10633434,-0.0744881,-0.00043159
,-0.00217314,-0.04128097,-0.0069715,0.07076813,-0.05377846,-0.02761433
,-0.06330286,0.01176592,-0.00444255,-0.02241941,0.05124834,0.07581746
,-0.04898911,-0.01605655,0.03762338,-0.00843224,0.07491542,0.10947928
,-0.04208145,0.01428482,0.05670509,0.02742752,-0.02676877,-0.0268641
,-0.10779571,-0.00740969,-0.10130324,-0.0941579,0.02590142,-0.08287165
,0.07751164,0.0363722,-0.10193241,-0.07867926,-0.04302881,0.06862997
,-0.04247159,-0.0239446,0.04732031,-0.04966284,0.06191196,-0.03037479
,-0.08045653,-0.03448711,-0.04431376,-0.007355,0.0448518,-0.03781148
,0.09428901,-0.04159774,-0.0157774,-0.10000788,0.09727626,0.0382743
,-0.00452142,-0.09656855,-0.10654784,-0.02672324,0.02844667,0.08483406
,-0.07787115,-0.0110959,-0.05313114,0.01860092,-0.01111653,0.04877253
,0.02844472,-0.02661387,-0.03960905,-0.05014593,-0.00153557,-0.07745082
,-0.05678422,0.04881385,-0.0707567,0.05628837,0.03744495,0.10476484
,0.0108481,0.09347594,-0.03782863,0.02735474,-0.07525985,-0.08485772
,0.0301675,-0.0587597,-0.08183561,0.08045439,0.06970161,0.04836639
,-0.04976761,0.06044615,-0.07003389,0.08035554,0.08696268,0.0513761
,-0.0742607,-0.0931259,-0.08468488,-0.07262766,0.0082339,0.08946083
,0.02382863,-0.04745766,0.00196259,0.00219661,0.00740648,-0.00686519
,-0.09376444,0.08534122,-0.05591075,0.03106685,0.10533842,0.08217805
,-0.08654431,0.04557743,0.08171605,-0.05936223,0.04552664,-0.03986774
,0.07982651,-0.00901525},{-0.00484051,0.04838145,-0.06224306,-0.06839859,0.09597367,0.02662959
,-0.07287244,0.07946312,0.08206207,-0.02820067,0.02849843,0.06299453
,-0.01624795,0.05914829,0.10685989,-0.03383454,-0.00579032,0.03033525
,0.08143234,-0.07951563,0.07401818,0.11567591,-0.07201422,0.03730264
,-0.02482435,-0.01487248,0.00827544,-0.01141114,0.0078774,0.07343451
,-0.08824082,0.06787593,-0.05532257,0.11411072,0.07372642,-0.00285134
,0.02002089,0.04996671,-0.05580979,0.00018522,-0.06524213,-0.00427956
,0.008308,0.07728388,0.03009466,-0.04871722,0.09202323,-0.03953538
,-0.04676684,-0.02414534,-0.03084204,0.0118786,-0.09133714,-0.05928491
,-0.09627675,0.08016435,-0.07633398,0.05320852,0.08209084,0.09969494
,-0.08060091,-0.06774569,0.02922156,0.04074708,0.0358298,-0.07819725
,-0.00544569,0.08623937,0.06308277,-0.00729628,0.10720878,0.01862992
,-0.09730479,-0.10295886,-0.06154733,-0.09722713,0.01599544,0.01290305
,0.04590979,0.08950428,0.09929719,-0.01217273,-0.0161566,0.07641573
,-0.06424323,0.04890433,0.00185584,0.11423958,-0.01568354,0.08309716
,-0.05223319,-0.07382821,-0.06292295,-0.0736423,-0.01989067,0.03396306
,0.10063604,0.04709279,-0.07919095,-0.06136241,0.02911334,-0.08339806
,-0.02493879,-0.03240582,-0.08391874,-0.07763435,0.01922585,0.10600051
,0.09219575,-0.10430833,0.05137547,-0.0120784,-0.01092492,-0.00055109
,-0.03688526,-0.01071113,-0.01311147,0.10107535,0.08118565,0.00172844
,0.02963889,0.00914029,-0.0807096,-0.05417845,0.05453138,0.01794619
,0.08090515,-0.08338419},{-0.05251796,-0.08865862,0.09987388,-0.0247777,-0.04153181,-0.03471693
,0.06126273,-0.01667871,0.10231889,-0.0991393,-0.02088395,-0.00406786
,0.05220442,0.00307566,-0.03480405,0.07486383,0.09456258,0.0220428
,-0.09081651,-0.04357032,0.0494402,0.10205283,0.09471268,0.00288378
,0.06133975,0.04464033,-0.0210977,-0.09047721,-0.08375283,-0.05970104
,-0.09810143,0.03204215,0.09179857,0.04862124,0.07351034,-0.08415294
,-0.08811963,0.0071441,-0.017683,0.05610767,0.07695375,-0.00028231
,0.07470415,-0.00400098,0.04390965,-0.0516781,-0.00483616,0.01421607
,0.09376773,0.05172132,0.02508887,-0.07616629,-0.08615484,-0.07676844
,0.08886718,-0.09269452,-0.07128982,-0.09775389,0.1140063,0.06224002
,-0.09577559,-0.033634,0.0851073,0.05629975,0.061504,-0.0876802
,-0.01479235,-0.09091335,0.09659208,-0.05440583,0.01909775,0.0655232
,0.09257146,0.0418583,-0.07916609,0.03533418,0.05408973,0.04834973
,-0.10607786,-0.10242236,-0.06496906,0.02907476,0.07299052,0.07805466
,0.10127402,-0.03712571,-0.07721031,-0.09968734,-0.09839703,0.0937013
,0.10833155,-0.03880825,-0.00149636,-0.09434853,0.01986389,-0.03029423
,0.10661614,0.02203207,-0.09383222,-0.03426543,-0.01013475,-0.06358011
,-0.10740136,-0.00767983,0.05219483,-0.0845079,-0.04837457,0.00429429
,0.108452,0.07316577,0.08591838,-0.10321812,-0.03412522,-0.04945203
,-0.04993976,-0.06903764,-0.08200542,0.01019463,0.10198367,0.07340708
,-0.05752457,-0.04372068,-0.05461164,0.07458342,0.0828172,0.0760657
,0.01513107,-0.02440426},{0.06143038,-0.06293917,0.04295148,0.10140622,-0.08416125,-0.08341668
,0.05383005,0.01836691,-0.0752221,-0.08295068,-0.06244278,-0.03712145
,-0.06032326,-0.02698035,-0.06394775,0.03916824,-0.05563291,0.02209
,0.10686232,-0.06875343,0.02446726,0.02258842,-0.05101557,-0.09538267
,0.00458766,0.02694601,0.00855312,-0.04391145,0.01980687,-0.04628176
,-0.08174866,0.08859014,-0.0578742,-0.02373384,0.11228913,-0.0637089
,-0.05187418,0.0701778,0.08357945,-0.00325823,-0.07687659,0.00673505
,0.06630175,-0.05893189,-0.06140161,0.02657434,0.01377486,-0.01811952
,0.08560622,0.05949034,0.04195944,0.02552538,-0.02263839,0.08495823
,0.04113867,0.07868932,0.06186783,0.1013599,0.07392195,0.08017609
,-0.06228159,0.06715136,-0.06528614,-0.04666555,-0.08668039,0.06011059
,0.00641854,-0.06991563,-0.02913532,-0.02534792,0.10697488,-0.09415574
,0.00930841,-0.01095538,0.01372488,-0.0445767,0.07389189,-0.0543403
,-0.04999762,0.00532818,-0.10909206,0.01835971,0.06555791,-0.10819174
,-0.02548828,-0.10507485,-0.01331186,0.04547217,-0.08370572,0.04939662
,0.00650233,0.01341344,-0.01995957,-0.07648729,-0.01719989,-0.05908089
,-0.0585603,0.04500485,-0.10809508,0.04471653,0.06493722,0.06190553
,0.06429069,-0.09011179,0.04010341,0.05718439,-0.07514022,0.06556906
,-0.06860111,0.10350908,0.08850297,0.0427756,0.01683301,0.080715
,-0.07710057,0.0763318,-0.01765063,0.04959507,0.08588008,0.06157029
,0.09949137,-0.08666601,0.02063215,0.08257007,0.07943201,0.08685837
,-0.02836425,0.04043664},{0.07231119,0.03356688,0.05219905,0.05993621,0.08842079,-0.04731188
,-0.0246271,-0.09309407,-0.01062448,-0.10497444,0.05652593,-0.05009868
,0.00772494,-0.08820164,-0.10118885,-0.05702549,0.00691258,-0.07135953
,-0.0189011,0.05784203,-0.02802875,0.08492178,-0.02052328,0.01161881
,0.04590987,0.09888276,-0.08418238,-0.0726969,0.06632604,0.01443078
,0.01046751,0.01694554,0.0411547,0.11345632,0.05636805,-0.02349616
,0.0748765,-0.01487059,0.01196136,0.04329154,0.09224258,-0.0367262
,-0.08555774,-0.00743674,-0.08116701,-0.08579608,-0.06040185,0.06610752
,-0.05513055,-0.09320696,-0.03120543,0.03458751,0.07406519,0.04852263
,-0.07454168,-0.10143739,-0.04865998,0.09159278,0.0591475,-0.03162964
,-0.10866154,-0.04361366,-0.06763273,0.05603914,0.08187589,0.10263575
,-0.08721342,0.00632983,-0.01451142,0.08702746,-0.04841512,-0.00420263
,0.08279797,-0.08804142,0.072343,0.09723333,-0.00371328,0.03692742
,0.004088,-0.06087834,-0.06347076,-0.08026648,0.02275293,-0.04673187
,-0.00832849,0.03733863,0.02660749,0.07650434,-0.0186369,-0.01182277
,0.06235427,-0.04244899,-0.08234009,-0.09300815,0.02202868,-0.11116349
,0.10331202,0.02398469,-0.04715071,0.0148837,-0.03966503,-0.02346165
,-0.08712068,0.06929979,-0.00474894,0.01023748,-0.1038487,0.00301649
,-0.08705184,0.00886964,0.06095699,0.10046417,0.00052718,0.02745395
,-0.01029747,-0.03486472,0.08923826,0.07748443,0.0697257,-0.05912239
,-0.05346353,-0.00416387,0.05540476,0.03983006,0.06532415,-0.10181579
,-0.03761563,-0.08777351},{-0.0954604,0.03279197,0.05241757,-0.01530897,-0.02317566,-0.04943946
,-0.04357004,-0.06773285,0.04880749,-0.09818982,-0.02773759,0.0481247
,-0.10073623,-0.03054528,0.07856928,-0.08665968,0.03396452,-0.02704784
,-0.04248022,0.09549938,0.07841597,-0.11310479,-0.081007,-0.05943409
,0.03910828,-0.09498709,0.08330535,-0.02407176,0.07742013,-0.00341627
,-0.08225434,-0.06535246,0.06150309,-0.10484222,-0.06883986,-0.04464659
,0.07499118,-0.05788376,-0.10027605,-0.01752934,-0.04833364,0.03839017
,0.08587418,0.01276253,-0.03539874,-0.04675189,0.04324422,-0.10662094
,0.10946676,-0.07885596,-0.00563806,0.05189243,-0.0144837,0.07849076
,-0.07876034,-0.04604423,0.04946032,-0.0369604,-0.01225966,0.09204263
,-0.05529448,-0.05053748,0.05357273,0.03237318,0.04881873,0.09869207
,-0.00384313,-0.10146464,0.06259958,0.01083949,0.05968542,0.02032115
,0.00685665,0.10108647,0.03875309,-0.01921482,0.01982318,-0.1029573
,-0.03140717,-0.05196828,-0.04728553,0.01226204,-0.09980266,0.035386
,0.06733378,0.02425847,-0.01543836,-0.11063938,-0.04802174,0.04222434
,0.10643332,-0.03450769,-0.08293964,-0.02331841,0.00365317,0.01857338
,0.0536708,-0.10651793,-0.07713065,-0.08869728,0.08374135,0.08095381
,0.01977316,-0.08657953,0.09728233,-0.02701145,0.08635467,-0.10505262
,-0.11390243,0.09736223,0.09903356,0.01205259,0.01552849,0.09310547
,0.02925857,0.09195937,-0.04367387,-0.02550743,-0.08765686,0.10030673
,0.04882878,0.08816963,0.02379894,0.02411467,0.0382169,0.01062652
,0.0117281,0.02524598},{-0.0674548,-0.00474597,0.02936496,-0.08166535,0.07203345,-0.10668671
,0.03849588,0.09388918,-0.04440999,0.06993975,0.06208776,0.05936227
,-0.00928571,0.02879749,0.07256447,0.03061677,0.10301791,-0.06309853
,-0.11477993,-0.00130747,0.0904483,-0.05336364,-0.06593712,0.03267279
,0.10080425,-0.10170289,0.08247703,0.01893387,-0.10578743,-0.06458751
,-0.0218594,-0.06284484,-0.04038055,0.04838439,-0.04464007,-0.07626548
,-0.07751441,-0.0397497,-0.08250637,-0.02323503,-0.07936276,0.08586471
,0.0404699,-0.09293824,-0.01916938,-0.07852694,0.00534153,0.0094737
,0.10746638,0.03165976,0.03662458,0.05542586,-0.08587863,-0.06586558
,-0.09954149,0.04048596,0.07774949,-0.06547421,-0.10141226,0.01015769
,0.08968958,-0.00360524,0.08623832,-0.02941909,0.05666995,0.09217795
,0.01987775,0.05791362,0.02042522,0.01202899,-0.04299933,0.10490018
,-0.08046389,-0.06443043,0.01788246,-0.07841036,-0.03612915,-0.1078293
,-0.06904504,0.02528264,0.04431729,-0.0598604,0.05535559,0.079009
,-0.02701919,-0.08953793,-0.03253695,-0.01969453,-0.05055757,0.09793888
,-0.05559518,0.01791735,-0.02156838,0.08154035,0.00943704,0.06596246
,0.01571839,0.06626106,-0.0239014,-0.01696182,-0.09767601,-0.09282578
,0.04618676,-0.08079326,-0.03293001,-0.06250305,-0.05875915,0.04918371
,0.06441709,0.03847877,0.04251353,-0.06718583,0.08919537,0.0454344
,-0.09317942,0.04225504,0.10405468,-0.06887949,0.00343286,0.06987035
,-0.00925321,0.08334836,-0.05738438,0.05056289,0.06702171,0.02268825
,0.05195598,-0.02636668},{0.02946017,0.0653309,0.01034209,0.10588602,0.01347827,0.06693125
,0.02057746,0.07233451,-0.03335973,-0.09544994,0.08533498,0.01359103
,-0.0530976,-0.09154958,0.04219513,0.02056336,-0.05186949,-0.08679412
,-0.04102674,0.06471853,-0.03045646,-0.05757467,0.08510296,0.07751531
,-0.02882933,0.00110036,-0.01474266,0.04891716,-0.04557237,-0.04712905
,0.05965547,0.04019835,-0.08476903,0.08868927,0.11469431,-0.02129786
,0.09407689,0.00904534,0.04682698,-0.0032938,0.01405001,0.02682995
,0.03845882,-0.10274731,0.03256172,-0.06825423,0.03089716,-0.07245039
,0.03638736,-0.06202726,-0.03614806,-0.00242321,-0.0375104,-0.05996949
,0.04739443,-0.01021704,-0.03117325,-0.05508354,0.00291942,-0.05754941
,-0.10551334,0.02574582,0.08069378,-0.04656063,0.00331195,-0.06121555
,0.08269683,0.03523188,0.01965458,-0.01962635,0.05534808,-0.08221481
,-0.09329408,-0.09191029,0.10225784,-0.05338927,-0.09010672,-0.07026609
,0.00138552,-0.06490821,-0.09159512,0.09462403,-0.02848058,-0.02749306
,-0.02079398,0.03022509,-0.09568425,-0.10601337,0.10285216,0.03196475
,0.01870771,0.07608755,-0.07843587,0.04893681,0.08522554,0.05769986
,0.09865171,-0.03051685,-0.04280633,0.07057573,0.06727979,0.05753011
,0.10008424,0.05972333,-0.009457,-0.01357889,-0.0885378,-0.07899392
,-0.04451687,0.03396155,-0.02604947,-0.0784008,-0.01672806,-0.05273045
,0.05536662,0.01208711,0.06972579,-0.0241055,-0.0031739,0.00474468
,0.05288133,-0.02078669,0.0829983,-0.0502302,-0.04488426,0.02688249
,0.0078912,0.0068779},{8.60488117e-02,-9.97875482e-02,-3.31989340e-02,6.18747734e-02
,8.70855227e-02,-2.92383563e-02,-2.87447050e-02,8.52976833e-03
,5.76844364e-02,-1.12455159e-01,5.74986897e-02,-5.68811083e-05
,9.45613980e-02,6.07807152e-02,-4.84421439e-02,-8.03566724e-02
,1.08740609e-02,-2.85449550e-02,-3.25856060e-02,8.10279548e-02
,-4.40834314e-02,-9.00534913e-02,9.98928249e-02,1.16543602e-02
,8.00268501e-02,7.40886927e-02,-4.46972474e-02,6.54375693e-03
,7.17473328e-02,7.69547671e-02,-8.88254717e-02,-2.64895651e-02
,6.77683204e-02,8.91118944e-02,-2.56186500e-02,-2.22139154e-02
,-8.68119895e-02,-4.84941155e-02,-7.75033236e-02,-3.87298800e-02
,8.68899375e-02,-1.02042712e-01,-1.87559463e-02,4.58982661e-02
,-1.08002678e-01,-5.51895723e-02,-9.40578952e-02,-4.22290303e-02
,3.93614918e-02,2.64750570e-02,5.16707031e-03,5.76135889e-02
,5.15319742e-02,1.66125651e-02,4.35592886e-03,1.75188202e-02
,9.23266262e-02,3.02130952e-02,6.39389381e-02,6.31269217e-02
,3.89852636e-02,4.45047915e-02,7.19027445e-02,8.83386210e-02
,-5.40999658e-02,-8.73474777e-02,-4.75161746e-02,-8.71738344e-02
,-1.00916266e-01,6.04705438e-02,-9.49590877e-02,-1.23494705e-02
,-1.02130100e-01,-3.93719859e-02,-8.81759524e-02,-2.36945208e-02
,-2.90524159e-02,-7.20522627e-02,-7.51632899e-02,-7.11342245e-02
,7.66953230e-02,1.09004594e-01,-4.49707098e-02,6.47306070e-02
,6.68492541e-02,-5.02955504e-02,1.01755142e-01,1.37057982e-03
,2.11693347e-02,5.85759021e-02,8.25584456e-02,-4.32307869e-02
,-4.16938104e-02,-1.12184398e-02,-1.67347863e-02,-5.06424271e-02
,6.97894245e-02,-3.98672819e-02,-4.00025491e-03,8.45304132e-02
,-2.37569362e-02,-9.59653631e-02,2.82867756e-02,-8.79394040e-02
,-9.04472321e-02,-2.54361948e-04,-8.01572055e-02,-3.37174498e-02
,-6.15845481e-03,5.60519509e-02,7.24765882e-02,7.56345987e-02
,-5.80150820e-02,-7.77197108e-02,-4.44924310e-02,4.84691933e-03
,-7.48158097e-02,2.98532518e-03,-2.50738114e-03,-7.23755062e-02
,8.38995427e-02,-2.05636099e-02,5.35619371e-02,-6.21350333e-02
,5.70831038e-02,4.20628935e-02,-2.39285417e-02,5.90155497e-02},{0.02896651,-0.07365835,-0.09041116,0.01131235,-0.01677695,0.06176087
,-0.08627353,-0.08118402,0.08453901,0.09336898,0.08494078,0.01656387
,-0.01687759,0.07921523,-0.04332823,0.0347476,0.08743758,-0.03486013
,-0.01510855,-0.07971674,-0.01913566,-0.06170911,-0.0182015,0.0754898
,0.00399688,-0.02382696,-0.00884181,0.06260783,0.02315395,0.03470759
,-0.03399416,-0.04511917,-0.10057864,0.04518036,0.01989533,0.0735523
,-0.08774048,-0.05914524,-0.07562315,-0.0173862,-0.05106566,0.07039133
,0.10450948,0.010556,-0.06556892,-0.0399833,0.08726405,0.01380883
,-0.08615527,0.02320768,-0.07257539,-0.05612746,0.07107317,0.0423407
,0.09733619,0.10463932,0.0731187,-0.05058023,0.07337674,0.02175612
,-0.07260307,-0.05246464,-0.0075056,-0.0001828,-0.04041855,0.02439616
,0.0105717,0.08204032,-0.09038486,-0.0363288,-0.0191872,0.09517919
,-0.07394417,0.10304037,-0.12053345,-0.11919603,-0.01833428,-0.06123245
,-0.02421113,-0.07547447,0.09159562,-0.03493671,-0.0616668,-0.06365003
,0.04365719,-0.05737884,0.03236222,-0.05912952,0.01429999,0.04573713
,0.0896284,0.00273459,-0.10511111,-0.07037103,0.04238204,-0.01939562
,0.06869442,-0.03839411,0.09553681,0.00562194,0.06787412,0.07581843
,-0.04142893,-0.08150488,-0.06009454,0.072754,0.06448098,0.07557166
,0.01747474,0.06121328,0.08418713,0.09471431,0.07197461,-0.091921
,-0.00445125,0.06519457,0.10173225,0.0226982,-0.01953036,-0.04297918
,0.02305848,0.04102581,0.09417046,0.04954322,-0.09255356,-0.08597037
,-0.00207664,-0.07874038},{0.10336287,0.07250927,0.01418467,-0.10348763,0.03923845,0.04237564
,0.1007678,-0.05221361,0.07358451,0.10384959,-0.08157063,0.01536959
,0.02981055,0.04058954,0.0140898,0.07659697,0.00945094,0.0429303
,-0.02278306,0.04321408,0.00675985,-0.06200661,0.0270481,-0.05172528
,0.06654168,-0.08311488,-0.04965265,0.02594881,-0.05001859,-0.08632898
,-0.10607745,-0.01720536,0.07673125,-0.07490699,-0.06116916,0.08966637
,0.06233281,-0.04665863,-0.05416365,-0.00173971,0.03194278,-0.07583829
,0.06418933,-0.05483531,0.06531335,-0.06749965,-0.03984978,0.08576957
,0.05575072,-0.01128278,0.01151543,0.01372899,0.06690009,-0.10623578
,0.03758078,-0.01689179,0.04941984,-0.01969456,0.08280338,-0.09893177
,0.03722775,0.09123237,-0.005741,0.0217474,0.06194211,-0.0311374
,-0.03583025,0.04108249,-0.01604611,-0.01304277,-0.00451043,-0.05014349
,0.04271432,-0.10820405,-0.08901902,0.11616959,0.01096276,-0.06110165
,0.01014283,-0.05691505,0.04987772,-0.06911866,-0.08974709,-0.06686774
,0.05864916,0.03726115,0.00228267,0.06019779,-0.05461462,-0.00076015
,-0.02654785,0.10209879,0.04361601,0.03434264,-0.0696883,-0.07443843
,0.08074521,-0.09108622,-0.03772783,0.03895292,-0.01469464,-0.04312498
,0.02799297,-0.00245471,-0.00479249,0.03244964,-0.04093567,-0.02708016
,0.05728382,-0.00736014,0.06067744,-0.07174401,-0.00507488,0.07819989
,-0.11077829,0.05085006,0.04744758,0.04336413,0.05946403,-0.08406129
,0.00807487,0.06549472,-0.03908884,0.04594005,0.06926616,-0.0395961
,0.02230314,-0.06317042},{-0.01246898,-0.10140581,0.10574996,-0.01109951,0.01343517,0.02809581
,-0.09474596,-0.09208353,-0.0351969,-0.11025409,-0.03845693,-0.03749734
,0.10855921,0.03806198,0.02720342,-0.04221429,-0.07965793,-0.07222784
,-0.0836188,-0.02426673,-0.08213565,0.0954835,0.05721551,0.07917656
,-0.06603481,0.09613008,-0.04902161,-0.10062801,0.07086734,-0.0837714
,0.00970937,0.06938288,0.08845443,-0.03481717,-0.05241264,0.07814304
,-0.09099507,-0.10694683,0.00205791,0.11969645,-0.00318156,0.02831363
,0.08574872,-0.09624627,-0.06488857,0.08214131,0.08246163,-0.0436889
,-0.06047696,0.04135479,-0.07204972,-0.05172848,0.00613772,-0.01743904
,0.07669934,0.08305082,0.01379927,-0.00219657,-0.02040411,-0.0379754
,-0.05266597,-0.01289912,0.00941263,0.00749515,-0.04662397,-0.02591136
,0.04734365,0.0683779,-0.05393534,0.02467279,-0.11339804,0.08763191
,-0.09864812,0.10495992,-0.07064342,-0.08551367,0.10576915,-0.00927909
,0.06194597,0.02062219,-0.01061666,0.03353283,-0.06771243,0.05383003
,-0.0907181,0.09047965,0.01520319,-0.03014978,-0.08863506,0.08714864
,-0.09171652,0.0319064,0.04572406,-0.07295377,-0.04435653,-0.01118225
,-0.10836638,-0.01987445,0.04083398,0.06182611,-0.09724738,0.0400487
,0.00211052,0.05729665,-0.04102854,0.07386456,-0.09436246,-0.03054802
,-0.10542919,0.03682095,-0.0443239,-0.08940983,-0.02103702,-0.07698959
,0.04365199,-0.01262972,0.08486228,0.03734312,-0.0314505,0.03076652
,0.07994605,0.00641886,0.10263271,-0.0989591,0.00140131,-0.03501303
,-0.01525333,0.06002903},{0.10876402,-0.02649787,0.06965725,-0.04199294,0.04524504,-0.08324946
,-0.06872896,0.0481346,-0.04295058,0.0238471,0.01277442,0.07945412
,-0.08278723,-0.08271259,0.00957292,-0.08626774,-0.02436936,-0.05749326
,0.09740409,0.08461839,0.02382845,0.08195714,-0.03343403,0.10380933
,0.10073539,-0.00281066,0.00760581,0.01796442,-0.04920644,-0.08445051
,-0.09354022,0.02864316,-0.02428935,0.03964756,-0.06901782,0.09350275
,0.01289514,-0.00140748,-0.09568715,0.08299828,0.00656195,-0.03219523
,-0.05999304,-0.05454399,-0.08186229,0.02292159,-0.07810978,-0.05775341
,0.04300507,0.04167059,-0.01972711,-0.09389278,0.08346184,0.07615066
,0.04977636,-0.07581586,0.03148612,-0.01733967,0.00415285,0.0667815
,0.0309838,0.08826692,-0.08945263,0.06930376,-0.09692417,0.08841664
,-0.02758715,0.02972872,-0.04502496,-0.00655256,-0.0954416,0.03250084
,0.06007158,-0.07375344,0.05457594,-0.0548441,0.06994758,0.00771576
,-0.08423384,0.09040363,0.07581333,-0.07304962,0.03841137,0.1002337
,-0.01924662,-0.0312839,-0.08621235,0.07562664,-0.02302877,-0.06016255
,-0.07153594,-0.06668271,0.05369458,0.10363352,-0.0445119,-0.04816773
,-0.089855,0.06556759,0.00642001,-0.06341599,0.00785853,0.04391632
,-0.07735563,-0.03696594,0.10793822,-0.08032563,-0.08919558,-0.03582161
,-0.05965196,-0.05122727,-0.00709717,-0.05180508,0.0400555,-0.0328943
,0.00527281,0.04261934,0.06092178,-0.01965959,0.0127809,-0.07204936
,-0.00893098,-0.04134233,-0.08926167,-0.07933754,0.10368052,-0.05900513
,0.0854971,0.09835581},{-0.10722417,-0.04516877,0.05806286,0.08619633,-0.10019171,-0.065904
,0.01843076,-0.09730551,0.11129876,-0.01795883,0.07814733,0.08667592
,-0.05124316,0.01061135,0.08981134,-0.05567846,0.06121453,-0.00395331
,-0.07406267,0.04881566,0.01313143,-0.04703197,-0.0112477,0.04532849
,-0.04002477,0.08742227,-0.07556362,-0.03740305,-0.05596888,0.04176906
,-0.05058139,0.0848288,-0.09982013,0.09792386,0.00968466,-0.01788186
,0.0882191,0.08310223,-0.07408366,0.04498158,0.03838516,0.08264693
,0.06381688,-0.09271184,0.02148403,0.09861587,-0.01882573,-0.01489635
,0.01821578,0.01444331,0.06291616,0.01631013,0.00240431,0.04983463
,-0.00207595,0.05630962,0.00568026,-0.00824465,-0.00710682,-0.01469739
,0.0599648,-0.09977015,-0.10682142,-0.0615897,0.11288244,-0.05940707
,0.03950326,-0.04728914,-0.08020679,-0.08939396,0.03228316,-0.09735288
,0.05867593,0.01278357,0.02370308,0.01365111,-0.0004215,-0.08774622
,0.09305996,-0.01758077,0.05825924,-0.06197071,0.09397107,0.1033031
,0.04489087,-0.09209417,0.07915933,0.00563507,-0.01738402,0.00211129
,0.04997443,-0.06884522,-0.10588789,0.03849663,0.07935672,0.049794
,0.07930582,0.04019331,0.07962807,-0.08328854,0.104367,0.07982816
,0.03618612,0.00149334,0.05317442,0.01470442,-0.03251101,-0.08010377
,0.08535325,0.03646776,-0.00031631,0.07501913,-0.07553139,0.03934561
,0.01532742,-0.01599573,-0.05287065,-0.10289118,0.03880262,0.09924699
,0.07931896,0.01370574,-0.03583189,0.08437181,-0.04967045,-0.01533256
,-0.01017323,-0.10507084},{-0.03631178,-0.05099072,0.03495707,0.04042836,0.07256015,0.0666257
,0.09257362,-0.07276086,0.00192782,0.06075099,-0.04751372,0.02413531
,0.02602997,-0.03773996,-0.0902366,0.09506703,-0.08839869,-0.06897926
,0.09722598,-0.01883364,0.06233709,-0.08480122,0.10798555,0.00481884
,0.03183154,0.0589225,-0.0519437,0.00227568,-0.09437584,-0.09783125
,0.09170886,0.08441629,-0.11255141,-0.0844197,0.00670483,-0.06219526
,0.1013469,0.07954184,-0.01970804,-0.08128767,-0.07674271,0.03717058
,0.0234067,-0.0388827,0.067889,0.04574151,0.02169006,0.06845258
,0.00754156,-0.07931714,-0.08647416,-0.07346473,-0.05391297,0.0965156
,0.01534788,0.10190044,-0.00865402,-0.08529682,0.06829491,-0.01259149
,-0.07647476,0.03105803,-0.07777827,-0.0726418,-0.04282623,0.1064436
,-0.0610699,0.04453154,-0.08433542,0.02896699,0.08240227,0.04373707
,0.00404756,0.02872893,-0.01051668,0.10018799,-0.07647093,-0.05929219
,0.00583722,-0.0972113,-0.07714658,0.01763774,-0.02851821,-0.07704661
,-0.08500511,0.05504075,-0.03632476,-0.06543042,-0.10691908,-0.11595668
,-0.01059151,-0.05477363,-0.09951585,-0.01975508,0.06521831,0.08789467
,0.07619502,0.10054154,-0.07474738,-0.09243408,-0.09186537,-0.07854995
,0.03235819,-0.022133,0.09219028,-0.06561948,-0.06040469,-0.1064193
,-0.06500046,-0.00547063,0.01331226,0.00800489,0.04267005,0.03937278
,-0.07819034,-0.03025933,0.10015801,-0.09816187,-0.10242853,-0.06118091
,-0.10384511,-0.08451876,-0.05606096,0.08231045,-0.07561931,-0.05886989
,-0.03828088,-0.02927145},{-0.04700384,0.10388781,-0.08762562,-0.06567577,0.08595496,0.08823102
,0.11136464,0.10344374,0.05571093,0.08036764,-0.05052923,0.05851024
,-0.09171332,-0.01751844,0.09253374,0.03335135,-0.0784286,0.06561675
,0.05412731,-0.0494187,0.07323314,0.10099809,0.05300647,-0.03844899
,0.03960682,-0.05913856,0.10637195,-0.00026776,-0.07293776,0.08971677
,-0.09251548,-0.05682074,-0.03432243,-0.08244319,0.0419866,0.0592558
,-0.06200451,-0.05045101,-0.09770727,0.06606698,-0.03543611,0.088627
,-0.05608201,-0.05959862,-0.05476972,0.09278403,0.05701933,-0.11288832
,0.05058557,0.05102943,0.02209618,0.08520426,0.06743539,-0.02673263
,-0.03938966,0.00092418,-0.06350154,-0.03343942,-0.08515877,0.03530023
,0.02247211,-0.06406882,0.09750181,0.09036491,0.03528151,0.06046461
,0.04738822,-0.08199605,-0.10036474,-0.09413745,0.03028722,0.07578497
,-0.02719718,0.03717466,0.04222374,0.10485029,0.10840275,-0.03359851
,-0.10978948,0.06243547,-0.09338335,0.10155065,-0.06147109,0.0054531
,0.05499939,-0.05556901,0.05412171,-0.01399371,0.06871165,-0.02346302
,0.08339564,0.07433266,-0.10203289,-0.06010691,-0.08194587,0.00228116
,-0.03470165,0.06653375,-0.10071929,-0.05588957,-0.00787306,-0.03137565
,-0.04641546,-0.0162087,-0.05632848,-0.08282693,0.07975339,0.03867719
,-0.07567968,-0.0234724,0.04981692,-0.06263933,-0.06837384,0.02906352
,-0.03803514,0.06625693,-0.03040969,-0.07164866,-0.07615414,-0.05347614
,0.09050477,0.06118823,-0.07954561,0.0593637,-0.0670476,-0.02719509
,-0.01153759,-0.0437553},{-0.08584981,-0.06581321,0.07244147,0.05925173,-0.02599561,0.08179173
,-0.05108017,0.09383088,0.02471057,-0.10535483,-0.01571996,0.00677911
,-0.06333786,-0.03469836,0.01287491,0.09210211,0.03161566,-0.05648632
,-0.08839917,-0.00649169,-0.03504838,-0.02748963,0.09327514,-0.04127626
,0.02005386,-0.07011508,-0.03031272,-0.05198149,0.09545531,0.08176365
,0.04943208,0.01488207,0.0549705,-0.06193534,0.08501929,0.05468923
,-0.03311404,-0.10023975,-0.05833878,0.01004435,-0.00666103,-0.06555223
,-0.0249072,0.03867709,0.05031018,-0.03876621,-0.04024674,0.08140296
,-0.01313346,-0.00928351,-0.06036252,0.04087463,-0.0315933,0.10068008
,-0.04089632,0.09353708,0.09845488,0.03700827,-0.10336947,0.09188834
,-0.07178535,-0.10858893,0.08231501,0.02736283,-0.07928202,-0.058509
,-0.04564277,-0.10690807,0.01398645,-0.07909799,-0.00486435,0.04130492
,0.07107396,0.06200224,0.01275916,-0.08886676,-0.08087241,0.09424772
,-0.02700801,-0.11101041,-0.02243131,-0.007948,-0.00996627,0.10324305
,-0.01314078,-0.04414855,0.03579267,0.03274006,-0.06003826,0.01666803
,-0.0638452,-0.01023641,-0.02766063,-0.04300883,-0.07126738,-0.07478033
,-0.09003329,0.07165485,0.04091067,0.06142452,0.01223093,0.06796762
,-0.09529819,-0.05465512,-0.09458777,0.06733719,-0.07657908,-0.05205667
,-0.08116313,-0.01749819,0.04882253,-0.07552092,-0.00300822,-0.0701244
,-0.07781493,0.07187766,-0.04682064,0.04739616,0.06420066,-0.01476054
,0.01047529,-0.06684365,-0.01603609,-0.0719372,-0.02003741,0.06484842
,0.0253084,0.105297},{3.16506661e-02,-5.41362315e-02,-1.55777344e-02,1.02280967e-01
,1.02371857e-01,9.50231776e-03,-1.31987557e-02,-2.76160110e-02
,-8.19785222e-02,-2.75988821e-02,8.76607597e-02,5.12327589e-02
,4.60361876e-02,2.29471978e-02,-1.90186978e-03,1.59430392e-02
,-5.40147983e-02,-4.77160849e-02,2.37115212e-02,4.89248931e-02
,-6.12890273e-02,-3.26778889e-02,-5.13966903e-02,-5.80491265e-03
,1.04912303e-01,6.50708079e-02,-4.99884300e-02,9.57840085e-02
,-2.17393991e-02,5.21321371e-02,-1.01547703e-01,-8.13185200e-02
,7.83482790e-02,1.14232569e-03,-2.45474912e-02,7.42895380e-02
,2.35320050e-02,3.91834155e-02,-7.54429698e-02,-1.40774855e-03
,-4.02022749e-02,5.58522623e-03,-2.02873852e-02,1.76082533e-02
,8.18218570e-03,6.48731291e-02,8.06010365e-02,1.32893620e-03
,-9.85449459e-03,1.00696348e-01,-8.39575306e-02,-1.25800520e-01
,-1.00011289e-01,8.82927254e-02,8.86189789e-02,1.65568311e-02
,3.23669240e-02,-6.97667450e-02,-3.50020342e-02,-2.14833431e-02
,8.98910090e-02,-1.12643562e-01,-5.55374324e-02,5.56151792e-02
,-2.38437508e-03,5.63790463e-02,-8.10426101e-02,-1.09003931e-01
,-6.44638464e-02,8.16788599e-02,-1.20716281e-02,8.10449123e-02
,-1.09726503e-01,5.53711876e-02,-4.47521619e-02,3.85993533e-02
,9.04868823e-03,1.53293265e-02,7.82749429e-02,1.52942194e-02
,-6.13335967e-02,-7.73055479e-02,6.40868545e-02,1.82294473e-02
,3.31661329e-02,7.23470002e-05,1.15348123e-01,-1.20258247e-02
,-1.03642210e-01,8.58504027e-02,3.34015451e-02,-2.96764914e-02
,-8.57751742e-02,4.61171493e-02,-6.91813007e-02,-6.81649894e-02
,-1.04772588e-02,2.27402821e-02,1.38829136e-02,-8.78831223e-02
,-7.47550055e-02,2.71211807e-02,-9.60839391e-02,-7.64253214e-02
,-2.36746878e-03,2.41125822e-02,-1.12231553e-01,-3.34194005e-02
,-8.97564292e-02,7.85766840e-02,-6.00766428e-02,-2.71350183e-02
,1.02280974e-02,-8.27512145e-02,-6.10161461e-02,-2.42335182e-02
,4.16596159e-02,3.86232175e-02,-7.07205087e-02,5.33900484e-02
,-9.30387527e-02,6.49880916e-02,1.41050415e-02,7.12382840e-03
,6.06666356e-02,-3.25121880e-02,-5.21453738e-04,-9.88748074e-02},{-0.09561104,0.01654396,-0.02565293,0.0255827,-0.01060135,0.04028653
,0.04994759,-0.03629339,-0.04901805,-0.02612796,0.07335871,-0.01533674
,0.01435527,0.02023452,-0.0145888,-0.05226257,-0.02034,-0.02592611
,-0.08379722,-0.03441651,0.05975393,-0.06726906,0.06230363,0.0431558
,0.04371211,-0.04663171,-0.05905891,0.07009773,-0.1074412,-0.02615532
,-0.00506806,0.0749154,-0.0717572,-0.07797239,-0.03074229,0.08017945
,-0.00448807,0.02078762,0.10904299,-0.102515,0.08660188,-0.08275855
,-0.0865704,-0.03681798,0.05814349,-0.1056416,-0.00367808,-0.0787341
,0.05371848,-0.09597565,-0.01640337,0.02020593,-0.04466267,0.05188809
,-0.09333403,-0.05203578,0.02741231,0.03857534,-0.00177461,-0.04457352
,0.04527562,0.08145323,0.06660542,-0.07288804,0.08407292,-0.09824419
,-0.10899331,0.02640148,0.07954251,0.07034194,-0.02103133,0.1001176
,0.02497598,0.00569415,-0.04757147,0.10948203,0.07704974,-0.05950099
,-0.0919987,0.039791,-0.04194282,-0.08953376,0.05452848,-0.05510563
,-0.00388592,0.004558,0.03794041,-0.0648122,0.00824533,0.04462744
,-0.0468525,-0.0939635,-0.08886587,-0.04139536,0.10626421,0.03796259
,0.01224093,0.09943361,-0.06312572,-0.01989713,-0.11188445,0.03201247
,-0.02585544,0.08547348,0.06448483,0.00285437,0.02840098,-0.00972261
,-0.04066276,-0.04681575,0.08104867,-0.09040946,0.00587018,-0.09915953
,-0.04266107,0.07099425,0.01483367,-0.02076243,0.05965316,-0.05648838
,-0.00896555,0.09334145,-0.00271255,-0.01805577,-0.06716662,-0.08855077
,-0.00349817,0.04177221},{-0.09104317,-0.09828445,-0.02685871,-0.00729799,0.03723401,-0.01269782
,0.02445701,0.10807925,-0.03867114,0.06061797,0.04041402,0.05879204
,0.00877826,-0.00956645,0.1019035,-0.09906687,-0.03542958,-0.05257092
,-0.10250631,-0.01047694,0.04581284,0.01907088,-0.03076801,-0.01797894
,0.02144704,-0.0273727,0.0661732,-0.08593491,0.08874341,0.0549908
,-0.06237978,0.03187323,0.07477456,-0.06399495,0.02969595,0.02272649
,0.07494049,0.04297887,0.04660777,-0.02802119,-0.00837571,0.08061656
,-0.06597508,-0.07297361,-0.07285534,0.10050011,-0.07675558,0.07349424
,0.08279561,0.04424329,0.08285173,0.03052935,0.01588411,0.08526633
,-0.00448602,-0.06020225,-0.10684609,-0.00072812,-0.02667904,-0.03247022
,0.07212298,-0.05282551,0.06265835,0.05297065,0.02369855,0.06773171
,-0.00571455,-0.00258651,0.06394626,0.04723731,-0.01893691,0.02086655
,-0.10330635,-0.00480485,0.04637793,0.01335948,-0.04075611,0.0038874
,0.0832974,0.03089255,-0.0963152,0.0761013,-0.03898709,-0.03216035
,0.05015036,0.08412819,-0.05817477,-0.07163424,0.03721129,0.06469303
,0.04060731,0.00972923,0.02512008,-0.09699398,-0.05814341,0.00668664
,-0.07300578,-0.00974431,-0.05504686,-0.01202055,-0.04761658,0.05276264
,0.01550771,-0.0709507,-0.05565401,0.00038067,0.0638123,0.07357755
,-0.08143689,0.08437461,0.03001172,-0.02487094,0.05315102,0.09970942
,0.04026898,-0.07453506,-0.02479937,0.10149164,-0.09066889,-0.02197878
,-0.07339797,0.02209408,-0.0853632,0.01603693,0.0462621,-0.03888629
,-0.10756806,0.09859863},{-0.06332093,-0.09601763,0.06662638,0.11310943,-0.10231791,-0.09917501
,0.04672828,-0.05935723,0.01879454,-0.01322007,-0.05794553,-0.04480182
,-0.0903543,0.10650843,-0.05562245,-0.03440961,0.05052628,0.02875159
,-0.06749231,0.08770092,0.01822989,-0.00954614,0.06707817,-0.05946695
,0.09456499,0.03795638,0.10528328,0.0390627,0.05675672,0.06402801
,-0.03221998,0.02952574,0.00572987,0.06925104,0.02365444,0.01038908
,-0.03554355,-0.04691564,0.06226311,-0.06267281,-0.02869535,0.02642998
,0.10697813,0.10248227,-0.02569041,-0.05873322,-0.09295473,-0.01522099
,0.06299357,0.03472992,0.04736146,-0.0391929,-0.00098123,-0.06410694
,0.0663375,-0.06127273,0.08132576,-0.09090537,0.00044797,0.04542414
,0.10616319,0.0346025,0.07917765,0.04016474,0.0660091,0.06697799
,0.01540913,-0.023849,0.09085511,0.09227277,0.03120892,-0.10911977
,0.02633453,0.04165146,-0.06775673,-0.05942912,-0.03384002,-0.06157396
,-0.05575247,0.0566206,0.01496559,0.0810542,0.02073768,-0.07139032
,-0.01541719,0.09383171,-0.02669702,0.05445212,-0.07628348,-0.00533688
,0.06878918,-0.07235121,-0.07585572,0.04104025,0.02457128,-0.09233581
,-0.05061531,0.09775888,0.07846531,0.09980312,0.09469511,0.05800847
,-0.0026374,-0.07372929,-0.11068824,0.04614495,-0.06130895,0.0772403
,0.09876136,0.02224998,0.04610635,0.04028784,-0.07085384,0.07662117
,-0.02178951,0.05047975,0.03536629,-0.02597732,0.00603682,-0.04466094
,-0.09215046,-0.04915578,-0.05433482,-0.02509652,0.10402094,0.01757818
,-0.09702143,-0.06795283},{-0.06511288,0.00876298,0.07316784,-0.1034862,0.09495126,0.08300002
,-0.02510466,0.05238267,0.06861118,-0.10310302,-0.05822752,0.05569388
,0.00202122,-0.0351223,0.00074928,-0.10467915,-0.03586402,-0.03814611
,-0.09405824,0.00122713,-0.01672987,0.02194144,0.04420514,0.0863364
,-0.03354145,0.06069623,0.07105622,-0.05357646,-0.03438564,-0.07259288
,0.07060515,0.04115636,0.00806592,0.07529957,-0.02315245,-0.06845584
,0.0362478,-0.0280972,0.05986601,0.04055008,-0.06795899,0.10342584
,-0.01598408,-0.0976782,-0.00660113,-0.07525958,-0.0496299,0.08552876
,-0.06102034,0.01124819,-0.01357644,0.06967589,-0.00217979,-0.03826851
,-0.03731763,0.09559636,-0.04495313,-0.02932261,0.08384171,0.02756313
,0.05407859,0.08046522,0.05418791,-0.0030802,-0.03724172,0.04334853
,-0.09159539,0.08219674,-0.08957182,0.00022349,-0.10210209,0.07648765
,-0.01574722,-0.0698908,0.02675056,-0.01368849,-0.08101521,-0.00774862
,0.06229147,-0.00368366,0.10745789,-0.09421841,0.00091116,-0.0858428
,0.06432053,0.03986381,-0.06249415,0.07498846,-0.07912777,-0.01088771
,-0.06578495,0.06298196,-0.06544404,-0.02596994,-0.06646141,0.04491729
,0.08397944,-0.06237847,-0.03149766,0.06002318,-0.09073169,0.04352111
,-0.0596914,-0.04549225,-0.02265775,0.04679842,0.10465924,-0.09620006
,-0.05569262,-0.01206267,-0.06567612,-0.03863163,0.02872403,0.0023634
,-0.06907622,-0.10368461,-0.08550657,0.0626776,0.06971141,0.05490492
,-0.07664268,0.00884084,0.05978424,-0.00560579,-0.10238446,0.06503091
,-0.08539297,-0.0536419},{0.08206241,-0.0120076,0.04434312,0.09815166,-0.06492662,0.00586078
,0.08774522,-0.11246829,0.03512833,-0.01001691,0.05915184,0.05205993
,-0.01069874,-0.08086424,-0.01442219,-0.10767169,-0.07821693,0.03438766
,-0.06566592,0.05603124,0.08217841,0.07216661,0.04874862,0.0854799
,0.04762191,-0.02463387,0.00663731,0.07940646,0.04541273,-0.11951899
,-0.1024336,-0.0028906,0.02910201,0.07050868,-0.10941222,0.04330719
,-0.00424256,-0.05655051,-0.08850101,-0.0374825,0.0658704,0.07167906
,0.09592211,0.07057628,-0.02481123,0.03173668,-0.00270281,-0.03105493
,-0.01527393,0.04177254,0.10260243,-0.07990038,-0.01090605,0.05816067
,-0.01855317,-0.0673887,-0.03755933,-0.09835216,-0.0977049,0.00754408
,0.0532472,-0.03941543,0.01873404,-0.02810463,-0.04503304,0.08922103
,0.01220657,0.05411496,0.03685607,-0.05490754,0.07193058,0.02630036
,-0.08693362,-0.02794852,0.00182846,-0.03862565,-0.09565703,0.11658642
,-0.06674165,0.08302628,-0.05536577,0.06407607,0.02226055,-0.04429376
,0.04827547,0.00167804,-0.04328457,-0.0399776,0.06937233,-0.04151585
,0.07122676,0.08288984,0.08957853,0.05667078,-0.05456994,-0.008759
,-0.10077349,-0.0900005,0.05540206,0.03690793,-0.06953093,0.07380774
,0.07004613,-0.00326628,0.09734058,-0.06148191,0.12016371,-0.02178049
,0.05979951,0.04029885,-0.00578219,0.0141074,0.01461109,0.10036383
,-0.00304643,0.0098835,-0.05365996,-0.08329765,-0.01253438,0.10257069
,-0.01651334,-0.00197073,-0.05266031,-0.07356538,0.0514927,0.03855991
,-0.08401334,-0.07068295},{0.06374382,-0.0335766,0.09252046,0.07093791,-0.04871572,0.08790747
,-0.09058245,-0.09695394,-0.0813036,-0.02894724,0.07264287,-0.07513552
,-0.04124331,0.03973832,0.06971921,-0.01562766,0.01663264,-0.02979982
,-0.01860452,-0.06569839,-0.08783964,-0.02479936,0.0934881,-0.03786193
,-0.02836866,0.05709669,0.06711555,-0.09613536,-0.02678358,0.08003942
,-0.07971247,0.00627059,0.04149946,-0.07345127,-0.0446766,0.0792879
,-0.08589146,0.04024849,-0.09057078,-0.08607236,0.10628588,-0.02873643
,-0.08919979,-0.08201189,0.02728176,-0.07295095,-0.05008024,-0.10082246
,0.06685747,0.03766531,0.07288402,-0.05808818,-0.04086816,0.06531893
,-0.04524462,-0.09814543,0.04561577,0.10269564,-0.04402842,-0.00841328
,-0.08012566,-0.00965805,0.04833502,0.07768656,-0.08393189,-0.06400914
,0.05157718,-0.09157149,0.01460845,-0.06272718,-0.07472844,0.05060565
,0.07891193,-0.09451179,0.10495998,-0.07186574,-0.02216227,-0.03799486
,0.09707798,-0.02605525,0.01460249,0.10216921,-0.04926403,-0.07819309
,-0.06757928,0.0072263,-0.03394618,0.04215181,-0.05824338,0.02813066
,0.09425373,0.03967951,0.07312648,0.09661932,0.03883012,0.09628077
,0.06051354,-0.03002285,-0.05672409,-0.02262318,0.0055398,-0.07403582
,0.08917905,0.04745554,0.06146613,0.08330198,0.09457503,-0.0842285
,-0.00529378,-0.10840373,0.02546098,-0.0568118,-0.09050364,0.03341525
,0.07328757,0.04698851,0.04728062,0.01583156,0.08093043,-0.08462591
,-0.01682009,0.09692392,0.06345888,-0.09907238,-0.053603,0.0289199
,0.08131277,0.02074908},{0.00162215,-0.00020106,-0.044937,0.07530879,0.02960855,0.07417248
,-0.0642094,-0.02153487,0.0890699,0.05578882,0.03912828,-0.06185724
,-0.04495313,0.08356541,-0.03157076,-0.01037148,-0.02614852,-0.07820918
,0.04831824,0.06518418,0.0237256,0.00297483,0.06010379,-0.00991322
,-0.07748298,0.11449749,0.04364609,-0.04618348,0.06329791,-0.07724636
,-0.04964682,-0.09584855,0.02701754,-0.0642276,0.06965782,-0.00511764
,-0.09179707,0.01034282,0.07628471,-0.0560715,-0.0031952,-0.05262408
,-0.02118602,0.09016663,-0.06316181,0.02955388,0.04446432,0.05895315
,0.104808,-0.01646371,0.05072322,-0.03995357,0.01131554,-0.02315186
,-0.03299879,-0.01566121,-0.08866628,-0.00263166,-0.02751916,-0.04152544
,-0.06133055,0.07417537,0.07542618,-0.01484143,-0.10828977,-0.0889697
,0.00436539,0.08108449,-0.07633995,0.10073923,0.06937914,0.0983842
,-0.04122891,-0.09420806,-0.01813877,0.05994727,-0.08543736,0.04775507
,0.0275437,-0.08417391,0.0165572,-0.01092417,-0.06431462,-0.08051111
,-0.0699444,0.02841279,-0.05665783,0.03742236,-0.07238024,0.08463679
,0.07998879,-0.07122902,-0.05456171,-0.08814029,0.08788786,-0.02169362
,-0.05548349,-0.01184563,-0.06638341,0.08294366,0.08022829,0.09859356
,-0.00345111,-0.03254019,-0.00823828,0.06815864,-0.01400931,-0.00683692
,0.03910179,-0.02789532,-0.06289179,-0.08041447,-0.08617686,0.02086503
,0.03345895,0.04003975,0.03872813,-0.02511652,-0.09808733,0.05512821
,-0.01443586,0.00776736,-0.06708264,0.04781614,-0.0368427,0.05359315
,0.05680994,0.04860495},{-0.091138,-0.08217046,0.02147822,-0.03253742,-0.08944922,0.0836594
,-0.06666698,0.0680462,0.05309255,0.01721954,0.07282197,-0.02946923
,0.0419709,0.02276912,-0.05524638,0.03526031,0.02986238,0.06573389
,-0.0080891,-0.03814356,0.0806492,-0.08253389,0.07152749,-0.05121938
,0.04413116,-0.06145956,0.10169525,-0.06790558,-0.06177917,0.10232276
,-0.09145973,0.03530019,0.06941027,-0.0932235,-0.05844543,0.10831399
,0.02846649,-0.07779232,-0.07680243,0.05058233,0.03290431,0.04010898
,-0.08969637,0.10654227,0.02381473,0.09543971,-0.00145526,0.00087391
,0.01019911,0.08650886,-0.08470928,0.06902802,0.01591119,-0.11221766
,0.07719752,0.03741135,0.02428862,-0.04983392,-0.02757047,0.09309325
,-0.02953287,-0.01175947,-0.00046499,-0.0062614,0.09293714,-0.0257329
,0.09320071,-0.09121747,0.04465337,-0.01990358,-0.06999753,0.09023066
,-0.01966095,0.0152525,0.01485806,0.02732038,0.10568815,-0.10677289
,0.06126031,-0.04584901,0.07852254,-0.02835358,0.04872391,0.02059076
,0.01912,0.05614371,0.06455002,0.03884462,0.04147449,0.01456059
,-0.00257679,0.06444206,0.10457886,-0.08926998,0.03979814,-0.01699425
,-0.0366657,0.03512997,-0.02314613,-0.09791388,0.03530624,0.04650008
,0.0837427,0.07326724,0.05651786,0.07880292,-0.05943615,0.04370852
,-0.0495285,-0.03515461,0.05033565,-0.04759637,-0.03934665,-0.0693116
,0.08396597,0.03688008,0.09368861,-0.04899959,0.0287546,0.10080051
,-0.00770271,0.08886948,-0.01543604,-0.08353218,-0.04886151,-0.05794217
,0.02505905,0.11148436},{-0.05836041,0.10484181,0.08143947,0.10264649,-0.0354898,-0.08972993
,-0.02031106,0.03592673,-0.00309731,-0.06695527,-0.10022727,0.0939768
,-0.06596316,-0.05299357,-0.02763845,0.04933621,0.0216178,0.09914982
,0.04129487,0.06672583,-0.08344019,-0.020227,0.10580322,-0.09508976
,0.04391935,-0.02753535,0.04687659,0.0451517,0.00309712,-0.03381062
,0.00134401,0.0888635,-0.04029222,-0.09886739,0.0259051,-0.02192068
,0.00322061,-0.00456244,-0.03036912,-0.10122014,0.01309051,-0.0081474
,-0.089986,-0.03749164,-0.05513619,-0.05325935,-0.05145822,0.10709114
,0.02327583,0.02372994,-0.06659222,-0.06526775,0.06709133,0.07840103
,-0.08615839,0.02475361,0.06660195,-0.04262371,0.02298922,0.04977851
,-0.11424359,-0.0631912,-0.00843965,0.04515187,0.02285334,-0.05287473
,0.02593997,-0.06317584,0.08991896,0.04203035,0.06874239,-0.09978006
,0.06148842,0.04759375,-0.04653618,-0.08153222,-0.04880679,-0.03224026
,-0.10193025,0.08042477,-0.03327209,0.01744109,0.12404946,-0.10438322
,-0.08498101,0.08043573,-0.09976047,0.01709606,-0.09255169,-0.08554902
,0.08475999,0.06975623,-0.11699592,0.02833301,0.09418068,-0.07292524
,-0.08059024,0.0193221,0.07190878,-0.0525569,-0.05501929,-0.00843231
,-0.02990166,-0.08653251,-0.06251655,-0.05033058,-0.04099739,-0.06456725
,-0.05964911,-0.10040647,0.0020891,-0.00970992,0.0669497,-0.07748632
,0.0067728,0.07826489,-0.03582045,0.05096528,-0.07614973,-0.0570037
,0.00952503,-0.09640341,-0.0929522,0.05201429,0.03977814,0.01848518
,0.04374853,-0.01072101},{-0.10871273,-0.01151054,-0.07856144,0.03746834,-0.01027472,-0.10402782
,0.08625805,0.02122899,-0.04558453,0.0737244,-0.0610276,-0.08429064
,-0.03251548,-0.07760606,-0.07050942,0.09799256,-0.01672654,-0.01935475
,-0.03019908,0.06052409,-0.04167789,-0.06774452,0.05358795,-0.02006963
,0.06225537,0.03419057,-0.01006532,0.02512275,-0.08153058,0.06078849
,0.02342923,-0.04910593,0.07648707,0.06081179,-0.08275917,-0.0940394
,-0.01104671,-0.06513716,-0.09038437,-0.09015095,0.10615076,0.1059019
,0.05351507,-0.04625281,0.06973237,0.05677076,-0.0582138,-0.07368758
,0.09205537,0.00691745,0.04857085,-0.00120229,-0.1010149,-0.09730224
,-0.08740116,-0.10838424,-0.02850784,-0.07264865,-0.08369455,0.03359289
,0.10491294,-0.09694611,-0.10975508,0.01181819,-0.10137934,-0.02072673
,-0.00423673,0.01402197,-0.0508288,-0.09268742,0.05116861,0.10161303
,-0.08762648,-0.03672583,0.10083003,0.00513913,0.01447947,0.0954269
,0.03459844,0.10512615,0.09614155,-0.05980557,-0.05826767,-0.05184634
,-0.06742726,0.00101532,-0.0301758,0.01903326,0.03709753,-0.05620145
,0.00712732,-0.06604337,0.08150262,0.00880724,0.04802614,0.00423342
,-0.10434393,-0.0350273,-0.05332935,0.07407355,-0.02005415,-0.09633696
,-0.10325377,-0.01014176,-0.0036764,0.07002632,-0.03851882,-0.00344126
,0.02184146,-0.03722232,-0.0628663,-0.06094137,0.04145656,-0.00903448
,-0.07011519,0.07503349,-0.06819064,-0.01086763,-0.01296888,0.02114552
,0.03925172,0.01672525,-0.0995351,-0.053228,0.09509628,0.07063274
,0.04933855,0.00988181},{0.03747553,-0.06800685,-0.02176944,-0.05705871,-0.08636468,0.04381138
,0.05510901,-0.07563315,0.03967709,0.00688798,0.06039507,0.02590644
,0.07205897,0.06839031,0.0208281,0.1049222,-0.08703328,-0.09435797
,-0.03757196,-0.089125,-0.07168069,-0.01706413,-0.04324027,0.07127552
,-0.09601218,0.08189359,-0.01836378,-0.06385171,0.10840094,-0.05569629
,-0.00719243,-0.05668618,-0.10534015,0.02308547,-0.07522631,-0.06375175
,0.07178691,-0.00025191,0.10623031,-0.07997882,0.10666294,-0.07647377
,0.06114179,-0.05584806,0.07113077,-0.0158275,0.07075766,0.07560229
,-0.1107391,-0.0318137,0.03201399,-0.09481189,0.06544239,0.03432255
,-0.00636906,-0.10447066,-0.02612563,-0.07673959,0.02259747,0.08273692
,-0.05636399,0.04185225,-0.05400608,-0.09684008,0.00722282,-0.06192942
,0.01220957,0.0565601,0.06769648,-0.09823374,-0.10228094,0.10384583
,0.0233137,-0.05815306,-0.07046819,-0.07201415,-0.05260328,0.02874627
,-0.02401714,-0.08833497,0.05041068,0.01407839,-0.05696342,-0.02612316
,0.06741308,-0.08353777,0.09355114,0.09526453,-0.10429263,-0.01553617
,-0.09531825,0.05934901,-0.05558291,-0.05093074,-0.01902504,0.01252313
,-0.05771578,-0.07702228,0.04556132,-0.076354,0.00317525,-0.02872175
,-0.06464387,0.04862889,-0.03040233,-0.01710381,-0.10389304,-0.02793633
,0.07391994,0.04324868,0.07618696,-0.04192451,-0.0897908,-0.02392863
,0.11000672,-0.02588783,0.0478143,-0.06006075,-0.07821795,0.09832116
,0.09371811,-0.09766918,0.05662246,0.03035467,-0.04450046,0.06259092
,0.03496142,0.00509346},{-3.54008265e-02,-5.19259796e-02,-4.69518267e-02,-2.13585757e-02
,-5.89595810e-02,-1.50029296e-02,5.62848412e-02,6.32294714e-02
,9.41919908e-03,8.78651142e-02,4.91783358e-02,-1.73293259e-02
,-1.90041098e-03,8.61827508e-02,-2.06937641e-02,9.63574946e-02
,8.00121948e-02,-5.84979132e-02,6.81418329e-02,6.46318495e-02
,-1.02107793e-01,-1.10064209e-01,2.63318829e-02,2.58075744e-02
,-5.43469302e-02,-1.08230546e-01,-2.63386182e-02,1.08518064e-01
,8.43445137e-02,4.54108790e-02,-4.41797040e-02,8.47780928e-02
,5.10682762e-02,-1.34707112e-02,-2.50827316e-02,-1.28800068e-02
,-1.77744385e-02,2.90676262e-02,-8.95324200e-02,-8.43154863e-02
,-3.41053270e-02,1.32053057e-02,-1.82286818e-02,2.99580600e-02
,-8.37808102e-02,-1.25983851e-02,7.92141014e-04,-8.02803040e-02
,1.45053873e-02,9.92047042e-02,-7.65876696e-02,1.36455130e-02
,9.50419126e-05,-8.14385787e-02,-5.34262396e-02,-5.74581139e-02
,7.46313259e-02,4.07755412e-02,-3.22748423e-02,-2.45914869e-02
,-2.08709110e-02,-5.69829531e-03,6.08700700e-02,6.74753040e-02
,-5.66658676e-02,2.59278505e-03,7.42995813e-02,1.01213872e-01
,-3.00807357e-02,1.91370621e-02,-7.01721013e-02,-4.86522317e-02
,-1.21614253e-02,1.08176097e-01,-1.87122449e-02,8.58882889e-02
,-5.91331944e-02,-7.70676788e-03,9.22326818e-02,-1.09798789e-01
,-2.32247147e-03,6.04190305e-02,7.76215047e-02,3.14944796e-02
,-1.04425987e-03,-4.63219248e-02,3.61125059e-02,8.97735879e-02
,4.61265296e-02,-7.32427686e-02,-3.80655415e-02,5.20657822e-02
,9.84268114e-02,-7.01360181e-02,9.52789038e-02,3.87853011e-02
,8.13933089e-02,1.11948699e-02,1.95542425e-02,-4.78799529e-02
,1.21756997e-02,-1.03782728e-01,5.46900090e-03,-6.36943579e-02
,-5.10914102e-02,9.96662453e-02,-1.02906257e-01,-1.00110017e-01
,-9.42725465e-02,-8.84741247e-02,-6.01691045e-02,-5.38654253e-02
,5.88693619e-02,6.57881424e-03,-2.31470484e-02,-4.77968827e-02
,-1.79728419e-02,-2.46436689e-02,-6.17861748e-04,5.44918999e-02
,7.52359778e-02,9.82993841e-03,2.58452967e-02,-7.06655681e-02
,4.97428775e-02,2.10019276e-02,7.27764145e-02,-4.74128872e-02},{0.05941469,0.03030605,-0.05399201,0.0653391,0.07938903,-0.0485427
,0.08507685,0.03526903,-0.06503318,-0.06345432,0.01938844,-0.01494159
,-0.10338236,0.09706892,0.04937304,0.03703321,-0.09368744,0.0150782
,-0.09893437,0.05234153,0.00395746,-0.0081572,0.00994932,0.08613674
,0.01403735,-0.04869139,-0.06336229,0.05468995,-0.07979884,0.02758148
,0.05586351,0.07276065,-0.03443675,0.05575719,-0.05767152,-0.06931226
,-0.08791991,0.03635579,0.03381455,0.12350662,-0.04105668,0.05298065
,0.03971562,0.01678579,0.04125659,-0.09024774,-0.10056164,0.04585504
,-0.00012761,-0.08989891,-0.02539857,-0.06475732,0.09227309,0.10490704
,0.10634165,-0.09314261,-0.06605586,-0.04941021,-0.10494769,0.10534185
,0.10370851,-0.09226552,0.00921858,-0.09681715,0.1070063,0.01379603
,-0.08710193,-0.08727737,-0.0597893,0.06597684,-0.1019613,-0.02011492
,-0.10582676,0.01203352,-0.04467242,-0.01190475,0.03460398,0.08752044
,0.03238172,-0.01189575,0.03594454,0.06590991,0.10939404,0.05415959
,-0.06016102,-0.0211748,0.06545225,-0.09122007,-0.05114112,0.03010514
,0.06654581,0.0907498,-0.09985508,-0.07947429,-0.00591667,0.07408842
,-0.04939303,0.02329563,0.07890902,0.11627278,-0.10380779,0.03472413
,0.04968543,0.02479683,0.01150527,-0.07214146,0.04971344,0.01245174
,-0.1102639,0.00327092,0.06420205,0.08617517,0.09360666,-0.06830426
,-0.00561748,-0.03110913,0.03063624,0.02496503,-0.01057789,-0.00764763
,-0.08576239,-0.09406596,-0.0931586,0.06567591,-0.03130801,-0.09156515
,0.06982708,0.05137424},{-0.0817109,0.0121247,-0.09198595,0.06500193,-0.06723048,-0.08842842
,0.04214055,-0.00648793,-0.09428973,-0.09929219,0.0370528,0.03616846
,0.08087945,-0.04956485,-0.06064183,0.0502006,-0.04676471,0.04106743
,0.07546951,0.00756237,0.00303728,-0.02970977,-0.04576286,-0.07792508
,-0.00083877,0.01992965,-0.01678485,-0.10856044,-0.04671252,-0.11525589
,0.06432412,0.07375015,-0.02363568,-0.0580243,0.07943306,-0.06559137
,-0.04666151,0.08380617,0.03067829,0.06759901,0.10186531,-0.03984928
,-0.03827235,0.01030214,-0.04126109,0.02673866,0.03229236,-0.07768873
,0.02549672,0.04055405,0.10421035,0.03588136,-0.06277575,0.03625095
,0.00397799,0.10500029,0.04176806,-0.05236385,-0.10104213,0.10098119
,0.06424801,0.11340781,0.02723262,0.01537231,0.02076286,0.04269135
,-0.04954646,-0.00337112,0.09960345,-0.04593515,-0.09900842,0.10564612
,0.10112317,-0.04713558,0.07483841,-0.09913875,0.05659094,0.05281021
,-0.03740994,-0.06516575,-0.07113598,0.04724624,-0.065146,0.09543111
,-0.07830451,-0.08709052,0.06828722,0.05057342,0.0809245,0.03115579
,0.03155589,-0.07272354,0.01877302,0.07883028,0.02003649,-0.07575472
,-0.07940455,-0.0167584,-0.07031903,-0.07225417,0.05075539,-0.01110157
,0.02923695,-0.06846242,0.05187767,0.02101535,0.06302722,-0.08546602
,-0.01896386,0.06557475,-0.10342912,0.01437965,0.03180629,-0.04026568
,0.03733427,0.03320375,0.10540023,-0.09909319,-0.01455154,0.10207289
,-0.07018972,0.06328138,0.08300544,-0.09801009,-0.07305977,0.09188903
,-0.03976808,0.10229613},{-0.04920466,-0.10510225,-0.07582772,-0.04577104,-0.04386109,-0.00778149
,-0.08489449,-0.04763967,0.00191789,-0.05024578,-0.01886624,-0.00438566
,-0.05402185,0.09543583,-0.06979796,0.11216223,-0.08774871,-0.03972923
,-0.06372351,0.09541476,-0.01919627,-0.07316647,0.02203244,-0.02386556
,-0.0326133,0.03889743,-0.04992904,0.00480129,0.07171632,-0.06836021
,0.06678092,-0.00554079,0.0826918,-0.03249201,0.00232667,0.04563981
,-0.04346305,0.05077442,-0.04418726,0.00055576,0.10071956,-0.06192391
,0.06059413,0.00142543,0.04330523,0.04631277,0.01863815,0.09988766
,0.02537217,-0.00219645,0.01878395,0.06085834,0.03985517,-0.07879839
,-0.04001675,0.0314738,0.08761332,0.04102694,-0.00483682,-0.00242776
,0.06523933,-0.03613647,-0.04213941,0.09691439,-0.08328687,-0.05279577
,0.07013319,-0.0448609,0.04184321,-0.04162942,-0.07766181,-0.08490552
,-0.00512039,0.10369077,0.09335282,-0.10332529,-0.06245125,0.08654987
,0.03057023,0.08015262,-0.03421586,-0.09198182,-0.08918437,-0.04416749
,-0.01416975,0.01594612,0.04397087,-0.03551963,-0.01322374,-0.06339705
,0.04058028,-0.01877683,0.03573217,0.05004488,-0.04986246,0.02441211
,-0.09256828,0.00145233,0.06658242,-0.00253241,0.04904312,0.07994855
,0.05506399,-0.00649439,0.02090545,0.05140934,0.03928166,-0.05244381
,-0.10305056,0.00258565,-0.06716379,0.10836045,-0.03297128,0.07817168
,-0.08185066,-0.10167707,0.10433825,0.10549043,0.05643531,0.04801679
,0.08024653,0.07321981,-0.09121542,0.02765152,0.09266607,-0.01736296
,0.09307333,0.09495032},{-0.10088371,0.08099064,0.05280397,0.00617365,-0.00386044,0.1085726
,0.02162212,0.06040288,0.03411905,-0.0766194,-0.08370935,0.0046349
,0.05175618,0.08635364,0.0670588,-0.03894124,-0.03518657,0.03626277
,-0.07087647,-0.08554623,0.06630462,0.09223425,-0.03915849,-0.03287126
,-0.02981351,0.00460915,-0.04205991,-0.10590567,-0.04804235,0.02958659
,-0.08522636,0.0118857,0.09218688,0.01396774,-0.05197923,0.02870432
,-0.00115855,0.04788273,-0.0152986,-0.0032574,0.01693046,0.00337284
,0.07905795,0.00079505,0.02780113,-0.10179754,0.03006424,-0.0598357
,0.05244906,0.03613753,-0.01212604,-0.07179622,0.03952414,-0.0321524
,0.01633682,-0.01387868,0.08172277,-0.01471633,0.00711031,-0.0980903
,-0.03783077,-0.11254991,-0.01065623,-0.06775898,0.11525107,-0.09747342
,-0.01936307,0.06241017,0.09578878,-0.04945048,-0.09320287,-0.01792037
,-0.08426989,0.0267716,-0.06568454,0.06264677,-0.03881608,-0.09920059
,-0.04197711,-0.00804696,-0.05434886,-0.02953194,-0.04188719,0.07585216
,-0.04592191,-0.00194326,0.03249578,-0.07667533,0.06440403,0.07378649
,-0.0113976,0.10476259,-0.08188613,-0.07832716,0.09760677,0.01200205
,-0.07976394,0.04627893,0.03464906,0.11740808,0.05451728,-0.0475567
,-0.08522294,0.00703377,-0.09756582,0.08314238,-0.07309151,-0.09303495
,0.00027981,0.07740644,0.0076521,-0.03142275,-0.04187133,0.09421761
,-0.05537649,0.01734214,0.07162624,0.08407683,0.10415301,0.07797556
,-0.05771179,-0.03197241,0.03784752,-0.08801597,-0.06517251,0.08066276
,-0.07115589,-0.04213721},{0.08531072,0.08565864,0.04684602,0.01232489,-0.08309238,-0.0137807
,-0.03113233,0.00504934,0.0598742,-0.05135432,0.08464229,-0.02564465
,-0.0194215,0.04639983,0.02665809,-0.09442458,0.08903978,-0.08452199
,0.04260867,0.07219508,0.02619487,-0.05395704,-0.09213078,0.05361148
,0.04229763,0.07091784,-0.09753902,0.09723862,-0.05260626,0.01655421
,-0.05911472,-0.03925008,0.01188834,0.01775632,0.02245975,-0.09242141
,-0.09366181,-0.03225722,0.04998965,-0.07752696,0.03146655,-0.10419399
,0.06761184,0.02510658,-0.10832415,0.03279132,-0.00050479,-0.06584562
,-0.09234257,0.0736285,-0.09487537,0.1099864,-0.08942607,-0.03306508
,-0.10188763,-0.04086509,0.07363474,-0.09630962,-0.06206305,-0.0191014
,0.09512271,0.02103769,-0.03379069,-0.0202544,0.10179458,0.00530092
,-0.08010467,0.10994666,-0.05788094,0.08647845,-0.09476528,0.04147305
,-0.10567166,-0.08305841,-0.0344833,-0.06289226,-0.02082748,-0.08169106
,0.05112405,-0.03980095,0.03161388,-0.05978693,0.03757896,0.0649941
,0.03726779,0.08812312,-0.01288472,0.07910361,0.05048701,0.05676925
,0.03716735,0.10439031,-0.03458139,-0.01068373,-0.03529235,0.01410208
,0.02375123,0.01829702,0.10186911,0.00682518,-0.04151791,0.09897529
,-0.05223882,-0.09004585,-0.08569365,0.01207107,0.0830516,0.04329022
,-0.08498816,-0.05220538,0.0490349,-0.00720585,0.02778444,0.01359628
,0.00963601,-0.04846944,-0.10685595,0.0972464,-0.07928688,-0.04688186
,0.03401404,0.08522494,-0.08537309,0.00830577,-0.07709204,0.08548899
,0.09690379,-0.07796198},{0.00609204,0.09156806,0.06238892,0.05763477,-0.03113641,-0.04990244
,-0.07650723,-0.08316761,-0.0273963,-0.09092772,-0.01585108,-0.0814612
,-0.0025921,-0.09017827,-0.09660767,0.02358043,-0.09549883,0.09195312
,0.07196736,-0.09610228,0.04285708,0.02695865,0.07904299,0.01332121
,0.07996827,-0.10654979,0.06046625,0.06399787,-0.07048629,-0.00443862
,-0.06797589,0.02391522,-0.08225334,-0.10480034,-0.07907316,0.08277599
,-0.06882145,-0.00421164,-0.02248314,0.10492271,-0.06347251,-0.06725766
,0.0088963,0.04499862,-0.08746595,-0.06692378,0.07782269,0.10185668
,-0.07933821,-0.04722939,0.03627135,0.10739546,-0.0566602,0.04265586
,0.08342682,-0.00119944,-0.0063122,-0.02056523,0.08333261,-0.04398604
,0.06053775,0.02641322,0.08291332,-0.05770886,-0.04600431,-0.00811906
,-0.03155144,-0.07226052,0.05773056,-0.03436651,-0.09158576,0.04248578
,-0.09133825,0.09109352,-0.11588376,-0.0618808,-0.08401661,0.01271385
,0.03677182,-0.00786697,0.00629039,0.06096005,-0.06656979,0.08015909
,0.03181694,-0.07953823,0.06822103,-0.00288023,0.01574543,0.08501464
,0.0607413,-0.03947511,0.09894585,-0.05932772,-0.0677384,-0.03086098
,-0.11118706,-0.02549569,-0.02305964,-0.07420031,0.0734771,-0.06345185
,-0.02533388,0.03042006,0.0966884,-0.07719508,0.08192991,-0.01320994
,-0.08907431,-0.0744834,-0.09103391,-0.05486616,0.09296796,0.0804796
,0.03338488,0.08218824,0.09767028,-0.10024898,-0.10136004,-0.02749828
,0.07176951,-0.06383659,-0.00457786,0.03749571,-0.00562293,-0.03316932
,0.07737283,0.02000649},{0.06516099,-0.04399003,-0.09520324,-0.04092661,0.10073221,-0.02640303
,0.00596396,0.06755363,-0.02535919,0.02080891,0.06434116,0.05616331
,-0.0600177,0.09782709,-0.04283208,-0.03785057,0.01633503,0.09624491
,-0.09383743,0.02862636,0.01912807,-0.01942874,0.07333949,-0.05276399
,0.04809797,-0.03296533,0.06694312,0.09732732,0.06746466,-0.00665479
,0.04793488,0.01801588,-0.07023543,0.01296303,0.03767757,0.06640858
,0.006154,0.02172095,0.09536994,0.04487447,0.02977348,0.00284035
,0.04219235,-0.04438161,-0.00447486,0.02020535,0.00721053,-0.04582061
,0.00945519,-0.09031024,-0.07783832,-0.02227681,0.03034847,-0.09417199
,0.02210663,0.00524786,-0.03632431,0.0082817,-0.08885318,0.01105015
,0.05030143,0.00111199,0.07846513,-0.08774807,0.00888373,0.04891977
,0.06330682,0.10024286,0.01126016,0.00873909,-0.07942217,0.0492338
,-0.09550793,0.04422382,0.04264283,-0.02958739,-0.05182016,-0.06245996
,0.07794658,-0.05037369,0.00276117,0.03974517,0.05300845,0.07809163
,0.01544666,0.05396617,0.08296493,0.04117952,-0.0409982,0.03482712
,0.06743858,-0.07450297,0.04165196,0.04236694,0.09025147,0.03117182
,0.08993579,0.03137889,0.01255443,0.05093949,0.08034113,-0.01479124
,0.03786357,-0.0216804,-0.01235765,0.0709279,-0.0857247,-0.07121162
,-0.0554924,-0.06311671,-0.02296388,-0.05436347,0.05517517,0.01048737
,0.04721665,0.05738503,-0.07826829,-0.02579569,0.00056459,-0.04727851
,0.00705391,-0.06207614,-0.06596382,-0.11019899,-0.02197087,-0.03597576
,0.0872294,0.06206381},{-6.67014420e-02,2.76519414e-02,-2.36737933e-02,-2.98717842e-02
,3.27882729e-02,2.79219262e-02,-5.82242608e-02,5.59405349e-02
,1.41890384e-02,5.48576377e-02,7.29730949e-02,3.92987356e-02
,-8.46901461e-02,-1.02438338e-01,-2.08906690e-03,4.32059988e-02
,-2.33995859e-02,6.86036795e-03,-6.23313463e-05,2.54649948e-02
,-2.58705225e-02,-2.30038185e-02,-1.73269399e-02,7.86030963e-02
,-1.00222506e-01,1.05900943e-01,7.58038983e-02,4.16395674e-03
,2.42913011e-02,-1.67428330e-02,4.76174280e-02,-4.85056415e-02
,-3.80444378e-02,2.51133554e-02,6.28607348e-02,6.71588555e-02
,-4.95794937e-02,6.52926415e-02,5.13680317e-02,1.66285075e-02
,8.17392990e-02,9.42364261e-02,-9.00025219e-02,3.57679613e-02
,1.33983810e-02,1.08208403e-03,-7.26017496e-03,6.99754106e-03
,8.51407498e-02,-7.41307363e-02,-1.06578641e-01,9.64277238e-02
,6.89357892e-02,-8.99852961e-02,-7.95868635e-02,-8.06066245e-02
,7.46481493e-02,-8.42734873e-02,-7.71030365e-03,6.80810586e-02
,1.11805871e-01,-7.29453042e-02,-1.66830439e-02,-6.77196681e-02
,-4.48633283e-02,9.66349468e-02,9.56733301e-02,-4.92199138e-02
,-1.09042317e-01,-9.73373950e-02,3.52755398e-03,-6.54282644e-02
,-9.34570581e-02,-5.01010492e-02,5.45845777e-02,-7.78099298e-02
,-8.03047344e-02,-7.02328682e-02,4.88883667e-02,1.01234943e-01
,3.57541703e-02,9.79540125e-02,-6.53715879e-02,-5.11253215e-02
,5.06205671e-02,-4.76962924e-02,6.32743090e-02,4.72054854e-02
,-1.01890385e-01,-7.49132931e-02,-5.28722219e-02,1.62202679e-02
,1.04256906e-01,-5.57313077e-02,1.14516821e-02,-9.93786976e-02
,7.62453228e-02,-2.75309384e-02,2.29536649e-02,-9.89606977e-02
,5.06788157e-02,-2.53193509e-02,-5.54420315e-02,7.74253607e-02
,5.91592193e-02,3.90456691e-02,-1.16954474e-02,3.49443667e-02
,9.16859955e-02,2.22742595e-02,-1.04463659e-01,-1.01254120e-01
,-4.67852540e-02,-1.90812014e-02,3.52627113e-02,-6.69093952e-02
,-2.79848576e-02,1.01319730e-01,2.20365152e-02,-1.59555599e-02
,-1.05711564e-01,9.02785063e-02,-8.04105923e-02,-4.36064554e-03
,1.54405320e-02,-7.90089890e-02,-9.08998251e-02,6.61160126e-02},{-0.07026652,0.06299891,0.0769193,-0.003546,-0.05431321,0.0273812
,0.07675287,-0.00815615,0.01307339,0.09220006,0.07836492,0.09337363
,-0.10417426,0.00637773,0.03917278,0.03917849,-0.02801052,-0.10656982
,-0.0840657,0.11308566,0.00463169,-0.01601703,0.08864346,0.01106974
,-0.05467896,0.07405378,-0.04494751,0.07784532,0.04101663,0.02164973
,0.07388584,0.06368566,-0.01702357,0.09167921,-0.03715079,0.01116966
,0.11038539,-0.04995773,0.05416836,-0.01633944,-0.04844188,-0.06161558
,-0.00858162,0.01324872,0.02884524,-0.09438115,0.04531256,-0.07318743
,0.00925046,0.0359653,-0.00174536,-0.01439744,-0.09009329,0.05664964
,0.06128647,0.01522729,-0.00305267,-0.01184878,0.03958008,0.0610795
,0.00087442,-0.08429019,0.09459261,0.01181747,-0.01026823,0.04247304
,0.03129857,-0.03544573,-0.06055592,-0.05675438,0.09371925,0.08253566
,0.02489821,0.08742876,0.10412623,-0.07680109,-0.01612917,-0.00342012
,-0.01266339,0.09330832,0.07238249,-0.09976477,-0.04237456,0.09833697
,-0.05878826,-0.11595459,0.01063409,0.00733671,0.03338654,0.0810328
,0.06357435,-0.0184912,-0.08570298,-0.04824328,0.05493024,0.10418775
,0.03998019,0.03563958,-0.09634631,-0.0933871,0.08526091,0.01172096
,-0.02265028,-0.02256282,-0.06467369,-0.10397347,-0.07255909,-0.09749383
,0.01536208,-0.07162999,-0.03582179,-0.09209691,-0.04172084,0.09114754
,0.08311799,-0.06221539,0.07658792,-0.05970134,0.01488686,0.08909649
,0.0390289,0.08710665,0.05319695,-0.07197504,-0.02199784,0.03304982
,-0.02037674,0.08889928},{0.03582153,0.02598646,0.00262997,-0.01547562,-0.04187113,0.05200852
,0.06549307,-0.02610717,0.07556853,-0.07304304,0.10733188,-0.03961307
,-0.06555497,0.0525829,-0.08840917,0.05749852,-0.05677407,0.00673463
,0.01173183,0.0573236,0.10959371,0.06802434,0.06667041,-0.09813964
,0.0801364,-0.09695927,-0.10778645,-0.00764914,0.09125819,0.03337829
,-0.01242487,0.0747656,-0.01786206,0.0770769,-0.09282303,0.04837522
,0.06882445,0.01165918,0.01083211,-0.03267426,-0.03797143,0.06717346
,-0.04950091,-0.03647546,0.00591585,-0.03711075,-0.07559934,-0.05798675
,-0.09974026,0.08235874,-0.04318686,0.04160867,0.07187238,-0.10438763
,-0.09630149,0.07785033,-0.01181817,-0.03285322,-0.08645816,0.05284765
,-0.0582187,-0.08195928,0.05953312,-0.08212448,-0.01086316,-0.04023797
,-0.01163614,0.03313713,0.09750909,0.09871257,-0.08183662,-0.06212759
,-0.05239579,-0.04195125,0.01911033,-0.07406492,0.01651299,-0.0216136
,-0.0937352,-0.06468685,-0.03670985,0.11607696,0.06087644,-0.09260976
,0.07958005,0.00802237,0.04456814,-0.00341864,-0.02406035,0.01519859
,0.03666295,-0.01554294,-0.10888875,-0.01114958,-0.07456446,0.03525685
,-0.01347242,-0.03339396,0.06330234,-0.10180506,-0.03796976,-0.10531089
,0.09963855,0.01269512,-0.094096,0.02008367,-0.11225483,0.02033414
,-0.06482614,-0.09855974,-0.07478231,-0.05780944,0.03464742,-0.07940349
,-0.0731272,0.04930758,0.05094925,0.04909914,0.0339038,0.08105785
,-0.04638996,-0.00035308,-0.10192064,0.04831499,-0.02583459,-0.06945844
,0.00466532,0.03685485},{0.07576703,-0.10246424,0.1146083,0.10773652,0.01607575,0.07407282
,-0.06141227,0.05510106,0.025135,0.07963897,-0.0925864,-0.03310209
,-0.09544735,-0.00121035,0.01688418,-0.03217193,0.07573445,-0.09434892
,0.07325851,0.03122671,0.08771873,-0.04593866,-0.09636623,0.05880536
,-0.08497149,-0.06809486,-0.0167731,-0.0600919,0.01311834,-0.07282276
,0.01927454,-0.04215838,-0.04270037,0.10533598,-0.01000302,-0.02831838
,0.07362537,-0.09118073,-0.07789358,0.00811775,-0.0302237,0.02709379
,-0.10428609,-0.09684955,0.06220036,-0.04298846,0.0985678,0.05266313
,-0.00623591,-0.09186322,0.01252749,0.06046999,-0.03967961,-0.04853009
,0.05523829,0.00132747,-0.09037654,0.04844208,-0.02285784,-0.07873839
,0.09490219,0.05455755,0.09310895,0.03605645,-0.09949349,0.00350256
,-0.02107522,-0.07512185,0.05958339,0.10318761,0.01872909,-0.00719503
,0.09548685,-0.10242137,-0.06479526,-0.02161368,0.07939432,-0.06366347
,-0.04250909,0.00402355,0.10780942,0.10478532,-0.03837634,-0.0853194
,-0.02132086,0.01146733,0.0541996,-0.06949531,-0.08215968,0.05536741
,-0.06981279,0.04685574,-0.05070704,0.00546494,0.10873692,-0.03314824
,-0.01843115,-0.03561925,0.07732968,0.05658822,-0.10588156,-0.03516693
,-0.01122317,-0.04622368,-0.01386678,0.03199834,0.00791168,0.09127685
,-0.05577764,-0.01876407,-0.10802083,0.03309659,0.01876706,0.09584042
,-0.09534973,-0.09381435,0.10631724,0.08844417,0.05829195,0.04830218
,0.01199596,0.05945356,0.02157273,0.09057847,0.04640938,-0.09189746
,-0.07651645,-0.00975885},{-0.01199086,-0.0362193,0.03097558,0.10429465,-0.0635417,-0.04260704
,-0.09236591,0.0973643,-0.07454181,-0.04533946,-0.03217634,0.00303561
,0.04124209,0.04073208,0.10452396,-0.01878291,-0.08071504,-0.05314685
,-0.03726443,0.02168342,-0.04524513,0.04629599,0.06905205,-0.0909117
,-0.01711688,-0.08763213,-0.09428924,-0.09407561,-0.03158218,0.05680779
,0.01969992,-0.10571066,0.04321348,-0.06202557,0.06078196,0.01344961
,-0.01200419,-0.02817696,-0.06104824,-0.10650855,0.00459195,-0.03561462
,-0.05910356,0.01372168,-0.00138771,-0.00766812,0.06538071,-0.06374283
,0.07099338,-0.06257667,-0.01641398,0.08024388,-0.04769213,-0.04889947
,-0.01174162,0.02698029,-0.10557894,0.09812272,0.09961328,-0.01008959
,0.00372297,0.03302443,0.07483454,-0.08040133,-0.0654528,0.02932907
,0.09698279,-0.09815411,0.02363582,-0.04357043,-0.05094543,0.01909811
,-0.06444454,-0.00190174,0.08720491,-0.03869375,-0.03642989,-0.01315621
,-0.02727829,0.00654238,0.05664935,0.01681247,-0.07090449,-0.06788125
,0.10313574,0.01933994,-0.1024671,-0.07403538,-0.08476899,-0.03926677
,-0.08460116,-0.10590742,0.00246363,0.05714237,-0.04113102,0.02132725
,0.02298427,-0.07893206,0.04509269,-0.03001994,-0.08828274,0.07952897
,0.10743431,-0.05594013,-0.08298019,-0.01096836,0.00462149,-0.0924899
,0.09698166,0.05584804,-0.00382333,0.04146611,0.09076687,-0.09008857
,0.10872144,0.01175031,-0.01879498,-0.02221039,-0.07586252,-0.07200372
,-0.04167519,0.04723701,0.1049542,0.03767115,0.05956284,0.04556534
,0.05877697,0.01802837},{6.40261993e-02,7.82734528e-02,-8.73298645e-02,4.71593700e-02
,7.37719163e-02,4.56755497e-02,-8.01333934e-02,1.05205864e-01
,-1.83187537e-02,7.42054731e-03,5.33859767e-02,6.76683635e-02
,9.16060712e-03,-7.69729093e-02,2.98769381e-02,-8.14095587e-02
,-1.21681625e-02,-8.29022750e-02,1.01047300e-01,9.14826244e-02
,1.18514039e-02,-4.46746452e-03,6.87927976e-02,8.10398534e-02
,-4.60981987e-02,-6.53376952e-02,-7.87615500e-05,8.81770179e-02
,3.83158736e-02,-5.80192953e-02,3.28091644e-02,9.69733149e-02
,4.60939854e-02,-7.28212595e-02,4.84370962e-02,-3.38459797e-02
,5.52317649e-02,9.07458290e-02,3.55899073e-02,-5.97513393e-02
,-4.26464938e-02,-1.74364180e-03,-4.53494601e-02,-3.22465263e-02
,-4.94623706e-02,1.01026103e-01,7.41308630e-02,-1.58687979e-02
,9.49367955e-02,1.51433507e-02,-6.72917664e-02,6.65993765e-02
,-5.23415953e-02,-8.72410312e-02,8.94199982e-02,-4.37076613e-02
,2.55204979e-02,4.19183336e-02,1.04314707e-01,2.28670184e-02
,-2.92345528e-02,1.77647732e-02,1.19675358e-03,-5.35120629e-02
,-1.23284971e-02,-8.89377743e-02,5.63052706e-02,-1.05009161e-01
,-3.90316658e-02,1.54772131e-02,5.36519699e-02,9.40929502e-02
,4.95899171e-02,6.39563054e-02,-6.64588735e-02,-6.73331842e-02
,-1.17743108e-03,6.31557927e-02,-9.87460762e-02,2.69599780e-02
,-3.23580243e-02,-5.41446134e-02,6.29827678e-02,4.20376621e-02
,8.83156955e-02,6.94717839e-02,5.84638901e-02,-7.24928826e-02
,2.33762413e-02,-9.50590298e-02,8.69087055e-02,4.73696403e-02
,5.78297079e-02,-5.42859882e-02,6.16527870e-02,-7.99940601e-02
,4.30361144e-02,-7.78917223e-03,8.16918537e-02,8.90360624e-02
,4.39197496e-02,9.29144993e-02,2.99701747e-02,-5.58813997e-02
,5.34818806e-02,8.30491558e-02,-4.50753532e-02,8.17568451e-02
,5.60885370e-02,8.36062059e-02,-8.20468292e-02,3.49738598e-02
,9.37699601e-02,-9.24967378e-02,-1.19038848e-02,9.86953825e-03
,3.91566828e-02,2.98986100e-02,3.18417177e-02,-5.88749796e-02
,-7.03329174e-03,-1.06185742e-01,-2.67280582e-02,-7.61919618e-02
,-7.50393644e-02,-4.87333350e-02,-5.30557744e-02,-8.74600708e-02},{7.72363544e-02,-9.90411043e-02,-5.94918951e-02,3.53043415e-02
,1.80586055e-02,4.34901863e-02,-2.70653311e-02,-7.77346492e-02
,9.63022187e-03,8.23578537e-02,-4.57495525e-02,5.68998381e-02
,1.02641329e-01,5.13870642e-02,4.28940430e-02,1.07631370e-01
,-2.49939822e-02,-8.10543150e-02,4.63367142e-02,-1.02422796e-01
,-5.34029417e-02,-8.37903097e-03,-1.22306766e-02,7.90153518e-02
,2.65308786e-02,1.06213264e-01,1.06769070e-01,2.70055383e-02
,-9.66472849e-02,3.67990620e-02,-4.68705036e-02,-4.77387086e-02
,-3.80812795e-03,8.86004195e-02,-2.90231481e-02,5.30549474e-02
,3.43095660e-02,8.62420276e-02,-7.41121545e-02,-3.76029722e-02
,-2.06005368e-02,-1.87455327e-03,1.07821323e-01,-3.85446947e-05
,-9.95865017e-02,-5.35351830e-03,3.05708311e-02,-9.42613743e-03
,-4.01189784e-03,2.70445812e-02,-1.95282302e-03,-6.38470380e-03
,-5.83799481e-02,6.63898000e-03,2.18744595e-02,8.65461975e-02
,6.47630617e-02,7.95201689e-04,4.80635948e-02,1.06174964e-02
,2.51147356e-02,-1.06614105e-01,-2.81935632e-02,6.75989762e-02
,-5.95444813e-02,-6.59980103e-02,-6.46035224e-02,-3.08930967e-02
,-4.32253489e-03,-4.52183001e-02,-8.88247788e-02,-8.70155320e-02
,2.44752988e-02,4.88782674e-02,4.44990583e-02,2.94578215e-03
,-1.91415530e-02,8.93325731e-02,-1.09172180e-01,-6.13724366e-02
,-7.77854323e-02,4.72083241e-02,7.84714147e-02,-3.19780558e-02
,-1.17395902e-02,-6.70599714e-02,-1.02807265e-02,3.24662589e-02
,4.19741906e-02,-9.74948853e-02,-3.53899002e-02,-4.62906659e-02
,-4.38217930e-02,2.22027451e-02,5.42903692e-03,-8.09608251e-02
,-7.75509998e-02,-4.86471169e-02,9.59810466e-02,-5.25598526e-02
,-1.04905300e-01,7.87901282e-02,-7.63302520e-02,-3.70000042e-02
,-8.17717984e-02,7.94561580e-02,8.47643018e-02,1.00293688e-01
,-5.36157638e-02,-4.91956361e-02,6.79525957e-02,-9.68075469e-02
,-4.53640483e-02,-1.06212357e-02,7.82571658e-02,-8.24615359e-02
,-6.50484860e-03,5.27633242e-02,2.56426409e-02,9.59656760e-02
,7.06396401e-02,7.61103332e-02,8.21198374e-02,-3.07832453e-02
,-4.14874451e-03,4.03321646e-02,6.03195745e-03,9.75266797e-04},{0.08493144,0.0220091,0.08582833,0.03270425,-0.05956832,-0.09775743
,0.05641504,0.07219498,-0.07945652,-0.05499525,0.05502524,0.08126934
,0.07920028,-0.06341583,-0.06061568,-0.09221064,0.06835484,-0.00078154
,-0.10892138,0.03857421,-0.09282707,-0.03206116,-0.01826543,-0.0927496
,0.07361426,-0.04043685,0.08584965,0.02980511,0.04965158,0.09619258
,0.0408883,0.02233397,0.03813726,-0.03018917,0.02643211,-0.07352817
,-0.08118732,-0.10430578,-0.01967977,-0.06217247,-0.02431425,0.09987256
,-0.10440501,-0.1045588,0.07754738,-0.06439874,-0.02964831,-0.02607182
,0.10454116,0.10104372,0.02846372,0.03001248,-0.07473853,-0.04417058
,-0.09096674,0.00028919,0.06754939,-0.03010744,-0.06411953,-0.03404732
,0.05705622,0.1022273,0.02807884,-0.02373597,0.02458664,0.07995783
,0.08272459,0.05033185,0.10691345,0.01948667,-0.0537507,0.09739251
,0.0325904,0.02810249,-0.05368939,-0.0656524,-0.09611157,0.09202822
,-0.09191294,-0.00261443,-0.04517121,-0.09999733,0.07477415,0.04933556
,0.07227205,-0.0802144,0.09427452,0.0937493,0.03642736,0.08668121
,-0.0829151,-0.05523792,0.0123955,-0.02111614,-0.00616829,-0.06008899
,0.04250486,0.04557661,-0.10244612,0.07936478,0.01509054,0.00830839
,0.09163135,-0.0249977,0.10761932,-0.05260324,0.05418105,-0.02371235
,0.05097535,0.03456903,-0.02226933,0.07851725,-0.0268273,-0.0055466
,-0.09589013,-0.03904779,-0.06599746,0.06664085,0.02453531,-0.00826741
,-0.06169468,0.01782804,-0.01734595,0.01254269,0.05795217,0.01268488
,0.09599686,0.04712452},{0.08673643,0.02365614,-0.07936514,-0.05994936,-0.09135012,-0.06044743
,-0.06205947,0.09479215,-0.0002572,0.0632067,-0.11129717,-0.00880783
,-0.02944588,-0.08749225,0.03637845,-0.07610565,-0.00416007,-0.02787763
,0.07802897,-0.07143243,0.01530438,0.09034983,0.00401767,-0.07814321
,-0.09176181,-0.03935784,0.09250381,-0.02406317,-0.0119274,-0.09671558
,0.07667588,-0.01403671,0.10114533,0.03785679,0.08788646,-0.09078284
,0.03339645,-0.07442624,-0.00988965,-0.05351069,0.06917347,-0.06301975
,-0.07665607,0.00169353,0.08508897,-0.09031154,0.09776577,-0.02517137
,0.04932501,0.03412862,0.01717503,-0.0647158,0.02382706,0.02481909
,0.02702574,0.01099691,0.10744327,0.07776409,-0.01218142,0.04450788
,-0.09561132,-0.05410369,-0.02583066,0.06583695,0.07057653,0.09352951
,-0.0726132,-0.0947038,0.06978001,0.00058876,-0.05408341,-0.04216073
,0.06661479,0.04607932,0.07567939,-0.04618871,-0.03500403,-0.00610003
,0.05146711,-0.03896749,0.04846923,0.02088925,-0.0769112,-0.03911298
,-0.09556758,0.0066385,0.03792815,0.06993297,0.01515904,0.0794927
,0.03034639,-0.01288333,0.07601212,0.08148098,0.0342931,0.03666346
,0.00046208,-0.05076314,-0.03905964,-0.06746371,-0.08619161,0.08456539
,-0.02180784,-0.08252119,0.04736869,-0.01055945,-0.01738727,0.07956761
,-0.08301686,0.00866106,-0.05511382,0.01082632,-0.01924564,0.04209484
,-0.08432936,0.09537335,-0.04753418,0.01930817,0.05344845,0.09333747
,0.07857475,0.04440688,-0.03437077,-0.05737621,0.0763666,-0.05438932
,-0.03629959,-0.02880672},{-0.01692786,-0.05928125,-0.03617628,-0.01469268,-0.00475471,-0.02377764
,-0.06392167,0.03014291,-0.08208647,-0.06808998,0.03961899,-0.08725108
,0.1093358,0.01057022,0.03513034,0.06185444,-0.0893894,-0.10219744
,0.04810314,0.02224538,0.04986931,-0.06428543,-0.00267937,-0.0179607
,-0.03279613,0.05955281,-0.0089478,-0.02261033,0.10485348,-0.02164666
,0.03458808,0.02223266,0.10290793,0.03506244,-0.06184311,-0.02020914
,0.10551079,0.01237495,-0.00072137,0.0078471,-0.01752558,-0.00901098
,0.04845986,0.00249544,-0.01178477,-0.06596905,-0.05128571,0.03554161
,0.00601719,0.11243647,-0.01168819,0.00646474,0.0975134,-0.09286603
,0.04131137,0.09282658,-0.04723372,-0.0787254,0.05752068,0.02362801
,0.08631979,-0.09232387,-0.04981178,0.0134446,-0.093208,-0.10353033
,-0.04995092,0.07597297,-0.04200312,0.03607189,0.10704006,-0.01629907
,-0.06379072,0.08890286,0.10669817,-0.03397743,0.01298934,-0.07136422
,0.02277102,-0.00961635,0.09455875,0.04532168,0.0533778,-0.04657816
,-0.0870766,0.0975373,-0.09426391,-0.04491214,-0.09577312,-0.00045144
,0.09079531,0.08823837,0.05666945,0.0646587,0.04554023,0.02241037
,0.05234096,-0.01745942,0.05947506,0.05166788,-0.04128896,-0.04812582
,0.02903567,0.00473917,-0.11616793,0.08144358,0.05751911,-0.07320909
,-0.10578823,-0.05417534,0.05946396,0.0108709,-0.06420635,0.06795695
,0.02185591,-0.0338498,0.08447041,0.07596587,0.03065754,0.05631792
,0.03002159,-0.05033682,-0.05450447,-0.11126477,-0.05206731,0.08097089
,-0.04270492,-0.03175779},{0.0313268,-0.01159884,0.04056278,0.03943043,0.03241678,-0.01815623
,0.07574478,0.08338039,0.03883767,-0.04373869,-0.07063116,0.08456688
,0.09339223,0.09760914,0.06884138,0.00900196,-0.09171886,-0.08563787
,-0.0996864,0.07910565,0.07726423,-0.07531627,-0.046801,0.02656317
,0.08231341,-0.10230654,-0.06866258,0.0368173,-0.09618656,0.03426333
,0.05997844,0.06418775,0.04716242,0.09546428,0.00885606,-0.08109431
,-0.08034154,0.10953246,0.05337028,-0.08290713,-0.07966809,-0.00513425
,0.09019288,-0.03634417,0.08514959,-0.1052321,-0.03962431,0.02382559
,0.06581295,-0.068641,0.08345707,0.01087438,0.08933716,-0.02762152
,-0.04414277,-0.06414422,0.06106422,0.10962308,-0.04996437,0.09401637
,0.08327326,-0.10205688,0.01049874,-0.0049226,-0.07043789,0.08074506
,0.00352788,0.08764105,0.10124355,-0.09898543,-0.10137537,-0.00071191
,-0.08873688,0.03479904,-0.03375642,0.01321922,-0.0260555,0.02242935
,-0.05203677,0.08359459,0.09360328,-0.08612573,0.0028714,0.00905559
,0.04315843,-0.00540289,-0.06916705,-0.06316379,0.07928693,-0.06111335
,0.04182293,-0.02795255,0.05817691,0.06378095,-0.07334013,0.08951715
,-0.02388985,0.01682062,0.08452486,-0.0945828,0.06231499,-0.10418218
,0.10294969,-0.08233207,0.09209245,-0.05138927,-0.06890799,-0.09877721
,-0.09222207,-0.0099503,0.10727713,-0.11025947,0.01739115,0.10065916
,0.09192251,-0.02656836,-0.09508058,0.01800177,-0.03982151,0.02130108
,0.05980897,0.07050078,0.06616046,0.04722866,0.03821759,0.02221211
,-0.10986976,0.07297699},{0.00182478,0.06613187,0.08972324,0.04254328,0.1041036,-0.11352587
,-0.01469376,0.06669793,-0.04052376,0.07178003,-0.09756397,-0.02097538
,-0.01101903,0.05163509,-0.09357796,0.07166924,-0.08496457,0.03668613
,0.01238284,0.09109255,-0.10652768,0.03539022,0.0238591,-0.1127413
,0.02591471,-0.10618833,0.00620449,0.05838418,0.03968738,0.07074763
,0.03646012,-0.08951187,-0.07446209,0.08714553,-0.10628983,0.08326328
,-0.02840439,-0.01718383,0.09360327,0.07883132,-0.02150973,-0.02400332
,-0.10350555,-0.02382523,-0.09051724,0.09774059,0.10007674,-0.02050884
,0.00234996,0.04570281,-0.02537764,0.00398094,0.06400999,-0.00695476
,-0.00224657,-0.04666426,0.00973477,-0.045085,-0.06544576,-0.02394172
,-0.04169569,0.08369628,0.0576556,-0.03060461,-0.04103764,-0.09301984
,0.04411672,0.05651887,0.05626835,0.05653491,-0.03573471,-0.05663081
,-0.07973307,-0.01531632,-0.11631434,0.04780938,-0.03842664,0.01572717
,0.03380706,-0.03316085,-0.02131715,0.09684852,-0.10447017,-0.11093334
,-0.06687528,-0.05245107,-0.00447719,0.09563819,-0.01419659,0.0800356
,-0.08087267,0.00680784,0.01391574,-0.07317994,-0.05343547,0.04680641
,0.04301205,0.06472769,-0.10380911,-0.07448757,0.09270884,-0.06398968
,0.03702173,0.08807754,-0.07621204,-0.03369944,-0.00130277,-0.03185829
,0.02370208,-0.03445518,-0.06210884,-0.06460898,-0.00014759,0.01741641
,-0.0380269,0.00094191,-0.06267284,0.10135877,0.105519,0.05048244
,0.00723096,-0.04370624,0.00145673,0.00965077,-0.09730368,-0.09370405
,-0.04916756,-0.0551149},{-0.01385885,0.03102219,0.03032238,0.06924082,0.0781051,0.08665252
,-0.09911007,0.06235737,0.05496152,0.01240038,0.02584009,0.0209155
,-0.07915973,0.00618248,0.02457777,0.03004488,-0.02071475,0.00647265
,-0.04809884,0.05645384,0.00803898,-0.0597608,0.07316095,-0.00124458
,-0.03767386,0.10125482,-0.09955851,0.00029988,0.00477494,0.08613326
,-0.08335997,0.06368819,-0.02738678,-0.05372831,0.04108789,-0.08084399
,-0.09646938,-0.07843947,-0.09635749,-0.04416339,0.04163426,-0.03999269
,-0.05426054,0.04485162,0.10331322,-0.05880778,-0.06735452,-0.02157404
,-0.01147547,-0.08591234,0.06824147,-0.0635693,-0.01746299,0.09980807
,-0.07194567,0.07016043,-0.06202729,0.07497388,0.06174269,-0.06528714
,-0.06328388,-0.00814624,0.09723245,-0.08371715,0.08002371,-0.03025576
,0.05908057,-0.08493882,0.04189235,0.00100893,-0.02063905,0.05771564
,0.07293546,-0.04548898,0.02190609,-0.06597526,-0.03677429,0.02644257
,-0.03525683,-0.03061505,-0.01139479,-0.0182242,-0.01395345,0.07367996
,-0.04162108,-0.07390397,-0.07150616,0.09576606,0.0433162,-0.10468645
,-0.09648515,0.04629201,-0.01058895,0.09441685,-0.09773531,0.0031847
,-0.05416146,-0.05032513,-0.03767226,0.00947644,0.00282308,-0.10859066
,-0.07884268,-0.09940863,-0.03051232,0.05149857,-0.00375241,0.03238603
,-0.02644579,0.03061135,0.00854326,0.08851174,0.07784218,-0.07012507
,0.0512992,-0.10086765,0.08247096,0.02609744,-0.04208595,-0.04367461
,0.05680328,-0.06662243,0.01725263,0.09839321,-0.02934678,-0.01542408
,0.00933521,-0.00707929},{-4.12453078e-02,6.76187500e-02,3.40777598e-02,-5.92631586e-02
,-8.01408142e-02,-8.66107196e-02,-9.95423123e-02,5.92050776e-02
,-7.60362521e-02,-2.92540906e-04,3.42527181e-02,6.29462674e-03
,1.40150310e-02,-7.09073469e-02,6.52519912e-02,1.77248009e-02
,-9.46047455e-02,-5.95092103e-02,7.71793420e-05,-5.83709404e-03
,-9.87682343e-02,-2.45247083e-03,3.54582220e-02,-8.49155784e-02
,7.90945888e-02,-1.07425137e-03,2.11386364e-02,4.02082354e-02
,-2.10924968e-02,-8.15134272e-02,5.02935275e-02,-5.04361391e-02
,-4.92435023e-02,-1.06636740e-01,6.33698478e-02,2.39606593e-02
,-1.72091108e-02,4.61939164e-03,-9.75724608e-02,7.10588694e-02
,8.31220597e-02,-7.13779032e-02,-7.20790923e-02,1.98978763e-02
,1.23020625e-02,1.07168823e-01,-4.16008756e-04,-6.84783831e-02
,5.77176400e-02,-8.40530470e-02,5.62592149e-02,1.15456797e-01
,6.90749437e-02,2.71511246e-02,-1.75405797e-02,2.07143854e-02
,3.59888002e-03,-8.10695961e-02,-8.23661014e-02,-3.52384076e-02
,1.19331467e-03,9.80389118e-02,8.66753012e-02,2.46890727e-02
,-7.83386007e-02,5.10192402e-02,6.01547249e-02,-8.01711679e-02
,-1.54258066e-03,7.93026090e-02,-7.32879937e-02,9.07658134e-03
,-1.04605071e-01,-9.70746914e-04,9.20610204e-02,8.39383975e-02
,9.17102769e-02,-2.16857754e-02,-4.11974043e-02,4.67384122e-02
,9.45019200e-02,8.05471465e-02,-6.54833317e-02,-7.29161948e-02
,3.49930897e-02,-3.08466218e-02,-2.78725792e-02,4.85799648e-02
,9.68680829e-02,-1.01493634e-01,9.71571505e-02,-8.67044330e-02
,1.11930944e-01,-9.37084630e-02,-3.97472940e-02,-1.02890491e-01
,-3.32081430e-02,-9.07123089e-04,2.15665554e-03,-3.20021771e-02
,6.37956262e-02,4.82078418e-02,-5.11967167e-02,8.30664709e-02
,6.34071454e-02,-8.87717754e-02,2.14563054e-03,1.50661031e-02
,-7.87339434e-02,6.81191534e-02,8.93554315e-02,-6.87085465e-02
,-7.16739893e-02,-5.20082284e-03,7.28199929e-02,7.54740015e-02
,6.12177774e-02,8.93706009e-02,3.14561501e-02,5.02340496e-04
,-3.49198803e-02,2.78453361e-02,3.71483378e-02,2.97917016e-02
,6.58918917e-02,9.63027328e-02,2.45989412e-02,-3.16087939e-02},{-0.03309372,0.06517469,-0.02105787,-0.04969417,0.00650936,0.11312384
,-0.06196126,0.03618755,0.00312994,-0.03375148,-0.01047277,-0.03896498
,0.06663709,0.04053436,-0.01615726,0.04018046,-0.02294165,-0.00293672
,-0.02909766,-0.05903728,-0.07102024,0.00164767,0.09923276,-0.06487437
,0.10080082,0.0975927,0.09376365,0.09501673,-0.07164142,-0.02543857
,-0.05277266,0.0142837,0.06487211,0.03883453,-0.05830931,0.00860133
,-0.07700951,0.03860494,-0.10697965,-0.06981181,0.03121656,0.07190645
,-0.06880444,-0.08863102,0.07546479,0.06416239,-0.08703597,-0.06841163
,-0.09910413,0.0411353,0.06816196,0.03783482,0.00934618,-0.08316516
,0.03087269,-0.06237201,-0.00754281,0.04357237,0.11028102,0.00911146
,-0.08639651,-0.00795558,0.02306817,-0.04532535,0.02560913,-0.01982641
,-0.04523402,-0.07535346,0.06055418,0.07967344,-0.06127025,-0.04369583
,-0.0860878,0.10677633,-0.07276782,0.10687808,-0.0312896,-0.01307998
,-0.05597991,0.05294209,0.09278456,-0.01147684,0.07039185,-0.01764392
,0.03186124,0.01258863,-0.007483,-0.11093703,-0.00562228,0.00789854
,-0.07510968,-0.07147215,0.06554026,-0.0095413,0.02887546,0.04721052
,0.06606757,-0.0731252,0.08936451,0.03740929,0.01649848,0.01463587
,0.01583766,-0.08868393,-0.03578267,-0.10084906,-0.00414206,-0.01517533
,-0.02008474,-0.06125207,0.00951468,-0.0407107,0.04784105,0.08763654
,-0.04491913,-0.07127424,0.0371987,0.00309308,0.0231983,-0.09316593
,0.047133,0.01864211,-0.01946265,0.06433947,-0.02486385,-0.02552189
,0.00391247,-0.04758475},{0.10042208,-0.07042085,-0.07114957,-0.00980987,-0.00897804,0.04377294
,-0.04512458,0.07582401,0.00777063,0.06337924,-0.06686479,-0.07037215
,0.07051393,0.05670288,-0.08780281,-0.06783838,-0.0777626,0.06343526
,0.06849294,-0.06199313,-0.0749411,0.00642991,-0.05571767,-0.00899492
,0.06752318,0.00640925,-0.0244965,-0.02334337,-0.06549627,0.08189168
,0.07541686,-0.00485852,-0.09141328,0.06560222,0.04281448,-0.0314808
,0.04955095,0.03500632,-0.04028457,0.08197344,0.0148988,-0.06668129
,0.02974852,-0.11110965,-0.01624703,0.00898379,0.09575925,0.01538034
,0.00847293,0.10369729,0.10757567,-0.07263304,-0.06453717,0.04541878
,0.02694296,0.05623344,-0.0304071,-0.08557866,0.03483208,-0.00716664
,-0.06656113,-0.05487923,0.0920203,0.00663888,-0.10324149,0.05121863
,-0.00253572,-0.00277931,-0.02083196,-0.04453918,-0.08440796,0.08539941
,0.04615183,-0.05671779,-0.01344463,0.08867251,-0.01461807,-0.0990431
,-0.00183399,0.01702511,-0.07686852,-0.03354,-0.08176461,-0.04698131
,0.04690167,-0.06079828,0.09224067,0.10838878,0.08619992,0.07315426
,-0.08001666,-0.02330716,-0.03356427,-0.00721576,0.08177835,0.03474624
,0.00341616,-0.06486554,0.06713137,-0.00156724,-0.0307525,0.05501062
,0.04070459,0.06576841,0.06226055,0.03480833,-0.05939453,-0.05369576
,0.11444835,0.07857187,-0.05912668,0.01786429,0.05639752,0.07146378
,0.08404798,-0.0329528,-0.02530833,0.00557956,-0.1034164,-0.10634412
,-0.08150307,0.05520755,-0.00323093,-0.04555882,-0.03702429,-0.1087786
,0.00396186,-0.00863831},{0.00298139,0.05562247,-0.04705252,-0.08397857,0.04539019,-0.08313543
,-0.0194294,0.00322085,-0.10486793,0.08142294,-0.06396564,-0.00227306
,-0.09063462,0.01811516,-0.00847182,0.10401754,-0.03941729,-0.07833142
,0.0222427,-0.10557812,-0.0315032,0.11115015,0.09388676,-0.05599752
,0.08208867,-0.05901326,0.10088518,-0.06244013,-0.00868481,-0.02253154
,-0.08219956,0.00723024,-0.02140252,-0.02962383,-0.03316092,-0.01390866
,0.08325376,-0.01461475,-0.00077817,0.10448232,0.02597168,0.09673975
,0.01556455,0.09786016,-0.02544123,-0.04556154,0.03631813,0.03285395
,-0.10472186,0.04862069,-0.03894874,-0.02237475,-0.06586221,0.09584082
,-0.02686529,-0.10622742,0.09499511,0.04664176,0.05699155,0.01562407
,0.06507313,-0.09939168,-0.09615293,-0.11042699,0.05716248,0.06114511
,-0.03712911,0.02665282,-0.02829514,0.03520654,-0.02699049,0.09434897
,-0.10486579,-0.04533354,0.00245307,-0.02454709,0.05080238,0.03014752
,0.05810078,0.1056494,-0.07729635,0.10591368,0.10869219,0.03330017
,-0.00792539,-0.013395,-0.09872823,-0.08303408,0.07433975,-0.06230902
,-0.01660337,0.04797064,0.06430414,0.09410312,-0.04304103,-0.04739314
,-0.04954565,-0.06106498,0.0411356,0.05644766,-0.07915296,-0.09472328
,-0.08928254,-0.04245124,0.09306804,0.02262375,0.1023154,-0.04308432
,0.01100267,-0.02309069,0.04249288,0.07907008,0.0049697,-0.06143639
,-0.07742324,0.0087337,-0.03243491,0.03206036,0.06531189,0.00137656
,0.05003282,-0.08654089,-0.02253375,0.07892841,-0.07345349,-0.08469376
,-0.04379228,0.02121514},{-0.08519284,-0.02570059,0.03031922,0.10963342,0.02730478,0.0367486
,0.08385079,-0.03397088,-0.05461688,-0.08274735,0.00444043,-0.03168666
,0.09268752,-0.08205825,-0.06423728,-0.00152602,-0.06304716,0.0305239
,0.0211438,-0.00556968,0.02169722,-0.03111849,-0.01447734,0.10807943
,-0.01456057,-0.03194225,-0.09419339,-0.00709138,0.10455746,0.05091961
,0.0642308,0.04367087,0.07235942,0.09578503,-0.0586654,0.04366313
,0.03146031,0.01211288,0.05638285,0.08174317,-0.0858006,0.0489438
,-0.0045102,-0.05814955,-0.09543647,-0.09270924,0.01204911,-0.04168035
,0.00544571,-0.0008785,-0.0840264,0.09448258,0.08260667,0.10074127
,-0.04052084,0.09839248,0.04765477,0.08454617,0.09125458,0.08859409
,-0.00849116,0.04486965,0.00477251,0.08893733,0.07795849,-0.07604811
,0.10392619,-0.05031779,0.03506955,0.08152419,0.0808123,0.10760406
,-0.00529936,-0.04133182,-0.04394802,0.10681656,0.06245379,0.04599795
,-0.1011611,0.07879571,-0.08014034,-0.01312754,0.03752801,0.0540219
,-0.05468732,0.03316949,-0.0629101,-0.06059336,0.08593298,-0.07136307
,0.04080513,-0.0727967,-0.07799809,-0.01676639,-0.00794885,0.10426567
,0.05689232,0.00203522,0.04619625,-0.05875943,-0.04944432,0.03707978
,0.04668665,-0.05263668,-0.05638983,0.07433035,-0.07760597,0.06743004
,-0.03963756,0.0908228,0.08055269,-0.06024396,0.04842189,-0.09566572
,0.04280151,0.07782122,-0.06657886,0.0757238,0.04904117,-0.04507234
,-0.02482289,0.07771818,-0.09838328,0.03635964,0.03661206,-0.02007277
,-0.08880456,-0.0592637},{-0.04024905,0.0916773,0.0474297,-0.03391469,-0.04748635,-0.03777958
,-0.00756405,-0.06962523,0.10955863,0.08537093,-0.05665233,0.01264715
,-0.02006987,-0.01033427,0.05064679,0.08430923,-0.00482187,0.01048936
,0.07704364,-0.06714928,0.09206142,-0.00134603,-0.0616346,0.10510469
,0.1110955,-0.08490907,0.03079155,0.07214958,-0.07706092,-0.04757993
,0.08990106,-0.0629783,-0.00331808,-0.01861856,0.0700985,0.03599836
,0.05742247,0.09441902,-0.10167687,-0.0899595,0.06055248,-0.03355358
,0.04471616,0.07222269,-0.07874539,0.04995724,0.090457,-0.05097438
,-0.07393902,-0.06773733,-0.02515112,-0.02478981,-0.03310627,-0.00759597
,0.04129522,-0.10539486,0.00251627,0.06260673,0.0068435,0.07153978
,0.0123565,0.09985257,-0.05925711,-0.0425319,-0.07387961,-0.09960765
,-0.05215704,-0.05486972,0.01512189,0.08628434,-0.01616208,0.02841406
,0.03654969,0.10167464,0.02127123,0.01027126,0.09888657,-0.02515329
,0.07115278,-0.01407657,-0.06881411,-0.05769271,0.02243001,0.10124236
,-0.00289514,0.06384398,-0.09804587,0.03451571,0.01525975,0.06633877
,-0.08965283,-0.06864639,0.07066058,-0.08974235,-0.00103214,0.03452933
,-0.04022564,0.03559449,-0.01257903,-0.06794643,0.06080384,0.02582061
,-0.01487774,-0.07987155,0.06240515,0.07176099,0.02419608,0.08195628
,-0.06037663,0.00541617,0.07867283,0.10117753,0.07017305,-0.04413425
,0.03664839,0.04921517,-0.10073889,0.0903675,-0.00018849,-0.07407941
,-0.0939336,-0.02923413,-0.06748123,0.04982961,-0.068848,-0.05077032
,-0.00111959,-0.08591603},{-0.04408509,0.09099933,-0.0149295,0.08715159,0.03816498,-0.0023139
,-0.00602953,-0.01662066,0.07731355,0.08776433,0.0804484,-0.061852
,-0.09683728,-0.00659924,0.0455046,-0.02595657,-0.01609466,0.04264075
,0.05143201,0.00407701,-0.00939113,-0.0083939,0.020944,0.04949671
,-0.024336,-0.02361463,0.05473166,0.08527374,-0.06361701,0.09600217
,-0.02632355,-0.03087062,0.0697841,-0.04510144,0.09231067,0.09737144
,0.04855486,0.04631516,0.10228021,-0.0508294,-0.08187018,-0.09230962
,-0.0604025,0.0787454,0.00840747,0.08553053,-0.09552088,-0.0907783
,-0.04054645,-0.04837099,0.0498038,-0.01377876,0.06651652,-0.05237051
,0.08477178,-0.03052214,-0.02593588,0.10659549,0.06747591,-0.05748279
,-0.02470583,0.06461671,-0.00332672,-0.04847816,0.0957486,0.08807131
,0.06322858,0.08592492,0.09706976,0.0095009,0.05586743,-0.05087891
,0.05040034,-0.04423489,0.07081681,-0.09735408,0.04139025,0.05154125
,0.04204292,-0.08754926,0.0554121,0.03429851,-0.10644992,-0.07158818
,0.0069287,0.0361699,0.09913156,-0.07993565,-0.05509724,-0.0043394
,0.04814672,0.0327245,-0.00572336,0.00652788,0.08921669,-0.02434343
,-0.08916449,0.0256156,0.0674864,0.01788376,-0.10520203,0.02915207
,-0.03741106,0.08502747,-0.00525081,-0.00303789,0.0777917,-0.08836872
,-0.09563998,0.06910038,-0.01936726,-0.10543438,-0.03858285,0.05875524
,-0.05294579,-0.04358685,0.08517256,-0.03400973,-0.03643392,0.08701541
,0.11249005,0.04510067,0.04496585,-0.05340376,-0.07669555,-0.00079842
,0.03316281,-0.0002049},{0.07018197,0.07946474,-0.07785778,-0.05732109,0.06359902,-0.03605716
,0.09915308,0.06767495,-0.006944,-0.08645171,-0.05000375,0.10009374
,-0.07884322,-0.05725626,-0.02277266,0.06718107,0.09130628,0.00394576
,-0.05550295,-0.08759066,0.08044342,0.04133581,-0.02819716,0.0229274
,-0.06799909,0.08161178,0.03846163,-0.0301885,-0.0204828,0.00988937
,0.06499257,0.0173963,-0.09563366,-0.00734915,0.02582157,-0.03104028
,-0.02817499,0.08849981,0.02313227,-0.08855523,-0.04253424,-0.02573458
,0.1023315,0.07951453,-0.03793187,-0.00468229,0.02367388,0.03558378
,-0.01980347,0.03354996,0.00043237,0.08851976,0.1134583,0.02592729
,-0.01103332,0.09990717,-0.04402272,-0.04422368,-0.06938459,0.03661127
,0.1012511,0.07404365,0.05190366,-0.0081888,-0.1078499,0.03889996
,0.0311659,0.0239497,-0.08017362,0.0581072,0.02610936,0.01840741
,0.05227662,0.00740737,-0.09264643,-0.0013134,0.04000051,0.00243392
,-0.05725537,0.01111969,-0.01574923,0.08017262,0.06330118,-0.04228149
,-0.07780284,0.07568943,0.09331775,0.06631348,-0.04558533,0.09935477
,-0.0587719,-0.11269671,0.05348296,-0.07449628,0.06474057,-0.04927196
,-0.03791945,-0.05691058,-0.03393473,0.0307614,-0.05052994,0.11837783
,0.02092086,-0.0602271,0.10707518,-0.10415781,0.00349283,-0.11214886
,-0.04871512,0.0490787,0.03484371,-0.07668594,-0.04100448,-0.04510846
,0.03648392,0.05996273,-0.05307515,-0.07101454,-0.0066148,0.08210439
,0.08889366,-0.06256437,0.01672023,0.08512678,-0.03919662,0.05337347
,-0.07989123,0.03131421},{0.0315141,0.08973013,-0.07402963,0.02574844,0.01136639,0.03506994
,0.09244029,0.07914476,-0.04585974,-0.09346997,0.09003761,0.00194218
,-0.01734411,0.01098888,-0.04906233,-0.00848768,-0.02509415,0.09016132
,0.07840316,-0.07702059,-0.04827027,0.01795185,0.10025235,0.0563825
,-0.06329001,-0.08853441,-0.06476235,-0.06437409,0.02087496,-0.06627254
,-0.10370506,-0.00912444,-0.00068826,-0.0049491,-0.05571648,-0.08060482
,-0.01640347,0.03100537,-0.02416399,0.06293011,-0.01196391,-0.03204578
,-0.10083745,0.03555088,0.06889872,0.06338953,-0.07514831,-0.09001265
,-0.08125867,0.04186495,0.07570936,-0.0725047,0.10188974,-0.02361354
,0.08351661,0.05988239,0.07549116,-0.07989886,-0.11052839,-0.00511643
,0.05969518,-0.04498894,-0.05454838,0.05206818,0.06714492,-0.08305927
,-0.05557222,0.01882808,-0.07580175,0.05845143,-0.03923291,-0.03357051
,-0.05643058,-0.08488102,-0.08274034,0.04414076,-0.10375767,0.09421992
,0.00379161,0.07992288,-0.11331131,-0.04819465,-0.06977668,-0.01564999
,0.09795799,-0.02209269,0.04349649,-0.10179453,-0.08654305,0.09125129
,-0.06108288,0.07517738,0.10676346,-0.06742854,-0.02218647,0.01076277
,-0.10222114,0.06718407,0.03788851,0.01297253,-0.08127947,0.03590502
,0.03143628,0.05349663,-0.05561717,0.06141854,-0.01965245,0.05714706
,-0.01340464,-0.07091014,0.04125271,0.09761537,0.0146066,0.06210778
,0.03519271,-0.05485964,-0.09499816,0.0025163,-0.04832283,-0.06425732
,-0.08573715,-0.07670732,-0.0355619,0.05949225,-0.03989312,0.08170931
,-0.00106725,0.07225259},{-0.05796939,-0.09371953,-0.0788596,-0.05676365,0.0189911,0.08098414
,0.10221145,0.04724703,-0.09376095,-0.00295685,-0.03535791,-0.05649224
,-0.09274408,0.10408714,0.03811174,0.07623874,0.07692863,0.05999356
,-0.01546351,0.01884422,-0.04057343,-0.0673275,0.00489259,0.10392163
,-0.0429886,0.01565164,0.07273231,0.00042608,-0.04023263,0.02485484
,0.07519763,0.03703359,0.07283667,0.08568336,0.07744858,-0.07060363
,-0.01980286,0.09565255,0.02342147,0.11616585,-0.047589,-0.04104886
,0.06385844,0.07258664,0.01569981,-0.02124057,-0.0017565,-0.04045104
,-0.07616851,0.06753164,-0.07575722,-0.09355049,-0.00991943,-0.01789894
